9.034567326307296753e-02,1.458384394645690918e-01,2.493653818964958191e-02,7.608491927385330200e-02,9.720066934823989868e-02,-1.741969212889671326e-02,-1.144294254481792450e-02,-4.600680992007255554e-02,-4.287942498922348022e-02,6.701236218214035034e-02,-2.666658908128738403e-02,-1.110706925392150879e-01,7.381574064493179321e-02,-6.917479913681745529e-03,8.245953358709812164e-03,-4.295102134346961975e-02,-9.318926371634006500e-03,-2.380184084177017212e-01,7.904329150915145874e-02,7.954106479883193970e-02,-3.828873112797737122e-02,9.914370253682136536e-03,7.551084458827972412e-02,8.529163151979446411e-02,-1.189538761973381042e-01,-7.335065305233001709e-02,-1.902703754603862762e-02,-7.028801832348108292e-03,-1.561225485056638718e-02,2.069078944623470306e-02,-1.420314237475395203e-02,-5.505211651325225830e-02,2.940508071333169937e-03,2.383711747825145721e-03,7.189661264419555664e-02,1.732850372791290283e-01,-1.119297221302986145e-01,-7.995518855750560760e-03,2.818753244355320930e-03,-1.000905409455299377e-01,8.992464095354080200e-02,-8.141708374023437500e-02,-2.379236929118633270e-02,-2.635798044502735138e-02,-1.854790598154067993e-01,-5.560105293989181519e-02,-5.646188557147979736e-02,-8.529478311538696289e-02,-7.083173841238021851e-02,-9.527584910392761230e-02,1.181203052401542664e-01,-6.743108481168746948e-02,8.478833734989166260e-02,8.980839699506759644e-02,-5.663969367742538452e-02,-2.173649147152900696e-02,1.010002717375755310e-01,1.487753726541996002e-02,2.387264370918273926e-02,1.196919679641723633e-01,4.224396497011184692e-02,4.965746030211448669e-02,1.233085058629512787e-03,7.764028012752532959e-02,-6.544746458530426025e-02,-1.087929531931877136e-01,-3.226615255698561668e-03,-3.158590057864785194e-03,-6.412997841835021973e-02,-1.040096208453178406e-01,-6.799227744340896606e-02,-6.050947681069374084e-02,-6.078285351395606995e-02,5.527942627668380737e-02,5.293001234531402588e-02,8.719557523727416992e-02,2.248983457684516907e-02,-8.904689922928810120e-03,3.338558832183480263e-03,7.212880253791809082e-02,3.122704662382602692e-02,-6.290636491030454636e-03,-5.830812081694602966e-02,1.713151857256889343e-02,-1.304835379123687744e-01,-3.066931106150150299e-02,3.909869585186243057e-03,-1.223324909806251526e-01,-1.050540134310722351e-01,1.021861657500267029e-02,-1.691360026597976685e-02,1.129791736602783203e-01,5.763704702258110046e-02,-4.901989549398422241e-02,3.134449571371078491e-02,-5.194029584527015686e-02,-1.620813161134719849e-01,-1.558358818292617798e-01,-1.234677359461784363e-01,1.098604947328567505e-01,4.577558115124702454e-02,1.248028427362442017e-01,8.979726582765579224e-02,-5.858631338924169540e-03,4.098064452409744263e-02,-6.441921461373567581e-03,-6.760550290346145630e-02,-2.075985670089721680e-01,-9.075232595205307007e-02,6.635159254074096680e-02,1.108415611088275909e-02,-7.740827649831771851e-02,4.592696670442819595e-03,5.025550350546836853e-02,-7.377906888723373413e-02,-1.687203198671340942e-01,-2.092771977186203003e-01,1.524248421192169189e-01,1.953808516263961792e-01,1.796324178576469421e-02,3.323205187916755676e-02,4.835310950875282288e-02,-1.342973262071609497e-01,-6.028714776039123535e-02,4.367639776319265366e-04,5.817901715636253357e-02,3.375265374779701233e-02,3.673205897212028503e-02,-8.697679638862609863e-02,2.848150022327899933e-02,-1.379250641912221909e-02,1.407695468515157700e-02,3.873180225491523743e-02,-1.001201719045639038e-01,-6.836458295583724976e-02,4.573472961783409119e-02,-5.432801321148872375e-02,6.471452862024307251e-02,9.710070677101612091e-03,-3.378920629620552063e-02,-5.033372342586517334e-02,-1.115483865141868591e-01,-4.557997360825538635e-02,-9.876695275306701660e-02,-1.663717068731784821e-02,-1.203994527459144592e-01,3.333142772316932678e-02,-1.064340174198150635e-01,-7.755925506353378296e-02,1.183534562587738037e-01,-7.207168638706207275e-02,2.213260531425476074e-02,-9.857500344514846802e-02,1.846182793378829956e-01,9.989296644926071167e-02,3.638511523604393005e-02,2.070734500885009766e-01,4.368541017174720764e-02,2.902003563940525055e-02,2.155808061361312866e-01,5.093368887901306152e-02,-8.209440857172012329e-02,-8.019683510065078735e-02,-2.275703474879264832e-02,4.039087519049644470e-02,7.841577380895614624e-02,2.924747765064239502e-02,2.645409293472766876e-02,8.503096550703048706e-02,-6.320849806070327759e-02,-1.120482310652732849e-01,1.191927045583724976e-01,-7.845617085695266724e-02,-4.070962220430374146e-02,-4.525963589549064636e-02,-1.070326492190361023e-01,-1.902392506599426270e-01,-3.795592114329338074e-02,-5.197772383689880371e-02,-6.435412168502807617e-02,-5.149295553565025330e-03,3.143157437443733215e-02,-3.367812186479568481e-02,-9.870368987321853638e-02,4.551975429058074951e-02,-8.429627120494842529e-02,-1.330010294914245605e-01,-2.074706181883811951e-02,-1.120871081948280334e-01,-3.456985205411911011e-02,-1.909255608916282654e-02,9.735591709613800049e-02,-1.121183112263679504e-02,1.028873920440673828e-01,1.139683946967124939e-01,-1.164551302790641785e-01,4.745597951114177704e-03,-6.259960681200027466e-02,-2.497779205441474915e-02,5.409325659275054932e-02,1.249150633811950684e-01,4.369871318340301514e-02,2.875599823892116547e-02,1.546958535909652710e-01,5.351676419377326965e-02,3.687975555658340454e-02,1.443751454353332520e-01,1.380458939820528030e-02,6.110433489084243774e-02,-1.095988675951957703e-01,-6.087934598326683044e-02,-5.106747522950172424e-02,-1.257663667201995850e-01,-1.424266397953033447e-01,-1.228956952691078186e-01,-1.313585489988327026e-01,1.158795505762100220e-01,1.046500504016876221e-01,-3.517904784530401230e-03,-1.618318259716033936e-01,-3.753911703824996948e-02,1.538997888565063477e-02,-2.519498467445373535e-01,-1.368195265531539917e-01,-2.627776935696601868e-02,4.909515846520662308e-03,-1.151472851634025574e-01,-8.384264260530471802e-02,-1.848947554826736450e-01,-4.249362647533416748e-02,-2.853486686944961548e-02,-2.426753789186477661e-01,-2.603606507182121277e-02,-9.850287809967994690e-03,6.272926926612854004e-02,7.531542330980300903e-02,-2.796545997262001038e-02,1.977251321077346802e-01,-7.070697378367185593e-03,1.162135377526283264e-01,2.011185884475708008e-01,1.257211784832179546e-03,-1.326567977666854858e-01,-6.031079590320587158e-02,1.147720813751220703e-01,-3.368682786822319031e-02,-1.512079387903213501e-01,-1.197237223386764526e-01,-1.417582482099533081e-01,-2.426400631666183472e-01,-1.785095483064651489e-01,-2.154876440763473511e-01,9.252955019474029541e-02,8.839388191699981689e-02,6.945286691188812256e-02,1.101330295205116272e-01,1.676961779594421387e-01,-7.308528758585453033e-03,1.297854036092758179e-01,7.773689925670623779e-02,-4.552003741264343262e-02,-5.811467766761779785e-02,1.616083234548568726e-01,1.048378571867942810e-01,-3.265682607889175415e-02,-1.925906166434288025e-02,-1.368987262248992920e-01,-1.916479915380477905e-01,-2.467517107725143433e-01,-9.945234656333923340e-02,8.832064457237720490e-03,6.423979252576828003e-02,2.845120429992675781e-02,-4.361929371953010559e-02,-1.147995069622993469e-01,-1.244584843516349792e-01,-1.416509151458740234e-01,-6.097830832004547119e-02,6.359406281262636185e-03,7.750449702143669128e-03,5.782554671168327332e-02,6.658814102411270142e-02,1.657682098448276520e-02,9.718719869852066040e-02,4.246073216199874878e-02,-5.166544392704963684e-02,5.606853589415550232e-02,5.486853793263435364e-02
6.200177967548370361e-02,4.064119979739189148e-02,1.077000722289085388e-01,3.055485896766185760e-02,1.138456314802169800e-01,9.668399393558502197e-02,9.319812059402465820e-02,9.064621478319168091e-02,9.095679223537445068e-02,-1.348176132887601852e-02,8.140658587217330933e-02,6.331436336040496826e-02,9.333872795104980469e-02,5.245589092373847961e-02,4.053765162825584412e-02,1.032265052199363708e-01,1.394522041082382202e-01,1.600499451160430908e-01,-9.180983155965805054e-02,-8.841173350811004639e-02,-8.356977254152297974e-02,-3.589074686169624329e-02,-5.038612335920333862e-02,2.034962736070156097e-02,-1.252950131893157959e-01,-1.447272486984729767e-02,1.253996491432189941e-01,-9.685181826353073120e-02,-5.207771062850952148e-02,-1.876734942197799683e-02,-1.573336422443389893e-01,-1.466797441244125366e-01,-1.973338425159454346e-01,-1.281815916299819946e-01,-5.356654152274131775e-02,-2.230955660343170166e-02,-2.937924675643444061e-02,-1.675202697515487671e-02,3.982198238372802734e-02,5.645917356014251709e-02,-3.617233037948608398e-02,1.307277083396911621e-01,-3.601530194282531738e-02,1.340448111295700073e-01,1.402139961719512939e-01,-2.747888676822185516e-02,-3.574897348880767822e-02,-1.514721959829330444e-01,5.385851114988327026e-02,-6.922291964292526245e-02,-1.446946561336517334e-01,-9.530654549598693848e-02,3.007653355598449707e-02,-9.597049653530120850e-02,4.993156343698501587e-02,-4.178550094366073608e-02,-5.070582777261734009e-02,6.597430258989334106e-02,-8.987502753734588623e-02,-1.608605086803436279e-01,-1.726604998111724854e-02,-1.610854640603065491e-02,-8.521229773759841919e-02,-1.012986525893211365e-01,-8.201558887958526611e-02,-8.751322329044342041e-02,-1.162638962268829346e-01,-7.307057827711105347e-02,2.464773133397102356e-02,-1.220558285713195801e-01,1.051116436719894409e-01,5.960085242986679077e-02,-6.912919133901596069e-02,-1.451088637113571167e-01,-1.131131425499916077e-01,-6.084712967276573181e-02,5.951635539531707764e-02,-5.082437023520469666e-02,-1.547831892967224121e-01,-1.732721179723739624e-01,-9.131305664777755737e-02,-9.528747200965881348e-02,-9.495137631893157959e-02,-3.194639086723327637e-02,-3.212510421872138977e-02,-1.861237548291683197e-02,-7.947914302349090576e-03,-1.271830126643180847e-02,-1.024747416377067566e-01,-2.886656112968921661e-02,-2.087316662073135376e-02,-7.786124479025602341e-03,-4.647168517112731934e-02,-1.717230305075645447e-02,-3.215143084526062012e-02,-7.948759198188781738e-02,-6.669784337282180786e-02,9.063410013914108276e-02,1.467452477663755417e-02,-1.339031904935836792e-01,2.391259744763374329e-02,8.791553787887096405e-03,-9.860460460186004639e-02,3.869098424911499023e-02,5.742076784372329712e-03,7.617025636136531830e-03,4.138877987861633301e-02,-4.111769422888755798e-02,-9.462044388055801392e-02,-1.290161348879337311e-02,7.877727597951889038e-02,-8.518740534782409668e-02,4.708105325698852539e-02,-7.060640957206487656e-03,2.378613455221056938e-03,-3.300641104578971863e-02,4.563474655151367188e-02,-1.011817976832389832e-01,-1.127382963895797729e-01,-3.002524375915527344e-02,-5.560753867030143738e-02,-7.964413613080978394e-02,-1.590418517589569092e-01,-3.938423097133636475e-02,-1.230449676513671875e-01,-1.012448146939277649e-01,-1.240197122097015381e-01,-1.003459189087152481e-02,-8.400784432888031006e-02,-3.886768594384193420e-02,-1.509925723075866699e-01,4.653414711356163025e-02,-1.185775995254516602e-01,-9.282561391592025757e-02,-1.037417501211166382e-01,-9.699087589979171753e-02,-4.268408287316560745e-03,-7.244440913200378418e-02,-1.739141345024108887e-01,-1.313186287879943848e-01,-3.001345507800579071e-02,-7.613594830036163330e-02,-6.484374403953552246e-02,-1.209794729948043823e-02,-1.391938515007495880e-02,-1.468942500650882721e-02,-7.995304465293884277e-02,-1.323582679033279419e-01,-4.938391968607902527e-02,2.711088955402374268e-02,4.373674467206001282e-02,-2.512929495424032211e-03,7.329133152961730957e-02,-1.565689444541931152e-01,-1.635270267724990845e-01,-8.709403127431869507e-02,3.066998161375522614e-02,-1.726625263690948486e-01,-1.667668819427490234e-01,-5.818780139088630676e-02,-7.285803556442260742e-02,-1.933016628026962280e-01,-8.603895455598831177e-02,-1.062265485525131226e-01,5.165102705359458923e-02,5.655885115265846252e-02,-8.521978557109832764e-02,4.320839792490005493e-02,-7.628278434276580811e-02,4.235488921403884888e-02,8.956946432590484619e-02,-5.750154331326484680e-02,9.889633953571319580e-02,6.239492073655128479e-02,1.305420100688934326e-01,5.681503564119338989e-02,1.095457300543785095e-01,9.340093284845352173e-02,-1.211424451321363449e-02,1.006181538105010986e-01,-6.386446952819824219e-02,6.574767641723155975e-03,7.793061435222625732e-03,-1.461373865604400635e-01,-3.874917328357696533e-02,8.095446974039077759e-02,-6.120733544230461121e-02,7.366421073675155640e-02,-1.343474537134170532e-02,-1.397190541028976440e-01,-6.556685268878936768e-02,-7.189789414405822754e-02,-1.435590982437133789e-01,-5.761840939521789551e-02,-4.486942663788795471e-02,-2.165720239281654358e-02,1.974971033632755280e-02,3.110933117568492889e-02,-2.013978064060211182e-01,-2.846162021160125732e-01,-1.427124142646789551e-01,-5.880159325897693634e-03,-1.661970615386962891e-01,-1.156651526689529419e-01,-2.669797837734222412e-02,-1.383915394544601440e-01,-2.347360700368881226e-01,-1.023612469434738159e-01,5.038795061409473419e-03,-1.084125041961669922e-02,-3.253576904535293579e-02,-9.981088340282440186e-02,-4.615615680813789368e-02,-6.931120157241821289e-02,3.366561606526374817e-02,3.892960026860237122e-02,-1.297176182270050049e-01,-1.497778594493865967e-01,-1.501078456640243530e-01,-1.723966151475906372e-01,-1.151347830891609192e-01,4.331999924033880234e-03,-1.596146970987319946e-01,-2.201090939342975616e-02,-1.053346022963523865e-01,1.002674107439815998e-03,-6.544441729784011841e-02,-8.534835278987884521e-02,4.944929853081703186e-02,-6.040436029434204102e-02,-2.160011231899261475e-02,4.526670277118682861e-02,4.529475234448909760e-03,3.474983200430870056e-02,-9.071726351976394653e-02,-6.125358119606971741e-02,-6.464526802301406860e-02,8.322167396545410156e-02,4.580769687891006470e-02,1.048580557107925415e-01,6.677696108818054199e-02,-9.516960941255092621e-03,1.256153266876935959e-02,6.375363469123840332e-02,-9.298424422740936279e-02,5.538138002157211304e-02,-3.904111683368682861e-02,1.028444319963455200e-01,1.460226625204086304e-01,-2.395070157945156097e-02,-1.156120188534259796e-02,6.304384768009185791e-02,-2.514385059475898743e-02,-2.119331508874893188e-01,-1.245760321617126465e-01,-3.331715241074562073e-02,1.644606515765190125e-02,-1.549178957939147949e-01,-1.845180094242095947e-01,-2.290393114089965820e-01,-1.389604657888412476e-01,6.988371163606643677e-02,-5.674215964972972870e-03,1.108646243810653687e-01,-4.599438607692718506e-02,-1.731133460998535156e-02,1.850884854793548584e-01,6.960048526525497437e-02,6.737416237592697144e-02,1.202606037259101868e-01,-4.143382608890533447e-02,-4.543889313936233521e-02,1.041105240583419800e-01,-1.186298113316297531e-02,9.157878160476684570e-02,1.138625219464302063e-01,-6.508746743202209473e-02,3.959100320935249329e-02,8.104922622442245483e-02,-1.060743033885955811e-01,-1.914858520030975342e-01,-1.907879561185836792e-01,-5.117403343319892883e-02,-1.375912874937057495e-01,-4.307445138692855835e-02,-1.042028889060020447e-01,-1.037524640560150146e-02,-1.234570741653442383e-01
1.593473702669143677e-01,-3.078109025955200195e-02,-2.141212671995162964e-01,1.627341955900192261e-01,6.614205241203308105e-02,-3.901696577668190002e-02,-1.103029400110244751e-01,-1.781141571700572968e-02,-1.230912376195192337e-02,1.086971610784530640e-01,-7.782258093357086182e-02,-7.020999491214752197e-02,2.448088489472866058e-02,-1.431000530719757080e-01,-1.322423666715621948e-01,1.916139200329780579e-02,-1.843346208333969116e-01,-1.069086566567420959e-01,-1.878681033849716187e-02,-4.240772873163223267e-02,3.207671688869595528e-03,-1.224094182252883911e-01,-2.056559361517429352e-02,-9.652837179601192474e-03,-2.487460710108280182e-02,-7.458410225808620453e-03,-1.776235848665237427e-01,9.968403726816177368e-02,-4.274727404117584229e-02,-5.683957785367965698e-02,7.803944498300552368e-02,-7.872372865676879883e-02,-4.845040664076805115e-02,7.566352188587188721e-02,1.025716438889503479e-01,4.773480445146560669e-02,-5.041551217436790466e-02,1.103687658905982971e-01,1.139863431453704834e-01,2.849824167788028717e-02,-1.023164764046669006e-01,-2.419255971908569336e-01,2.732771635055541992e-02,-5.209539830684661865e-02,-8.096861094236373901e-02,2.289192751049995422e-02,-3.702503070235252380e-02,-2.581068128347396851e-02,3.973129671066999435e-03,8.710040152072906494e-02,1.024377793073654175e-01,-5.144853144884109497e-02,9.348823875188827515e-02,-5.549652501940727234e-03,-1.010681465268135071e-01,-6.189154088497161865e-02,1.270327717065811157e-01,1.619926244020462036e-01,5.559976398944854736e-02,-4.614547267556190491e-02,9.667092934250831604e-03,-2.485082298517227173e-02,6.725782901048660278e-02,5.735616385936737061e-02,-1.377450209110975266e-02,-5.724726989865303040e-02,6.369632482528686523e-02,-5.768410488963127136e-02,-4.691698029637336731e-02,-1.729587018489837646e-01,-2.255964651703834534e-02,1.005884110927581787e-01,1.203150376677513123e-01,1.441630423069000244e-01,1.216894760727882385e-01,-1.010152399539947510e-01,-2.205996587872505188e-02,1.071215197443962097e-01,-9.142971783876419067e-02,-1.224224790930747986e-01,-1.362998038530349731e-01,-7.397294044494628906e-02,6.299316883087158203e-02,8.987048268318176270e-02,8.674644865095615387e-03,7.191143231466412544e-04,-6.158621981739997864e-04,-1.210185959935188293e-01,-9.293742477893829346e-02,1.077106106095016003e-03,7.059407234191894531e-02,-6.032650545239448547e-02,-8.255924284458160400e-02,-1.115247458219528198e-01,-4.581170529127120972e-02,1.577965356409549713e-02,-2.653447687625885010e-01,-1.925655603408813477e-01,-1.481846868991851807e-01,2.365035563707351685e-02,5.925057083368301392e-02,-2.489847829565405846e-03,1.060609295964241028e-01,-5.190278403460979462e-03,1.909962296485900879e-02,-1.260419636964797974e-01,-9.427332878112792969e-02,-2.609270513057708740e-01,5.228853598237037659e-02,-4.798430576920509338e-02,4.556175693869590759e-02,-7.445390522480010986e-02,5.440654233098030090e-02,-1.451748609542846680e-01,-2.693585157394409180e-01,-3.679126873612403870e-02,-1.427549570798873901e-01,1.510785818099975586e-01,1.167446300387382507e-01,-2.164543867111206055e-01,-7.019869983196258545e-02,-9.978097677230834961e-02,-9.076897054910659790e-02,2.928088046610355377e-02,3.028983250260353088e-02,-2.043149434030056000e-03,6.397028267383575439e-02,-6.761799007654190063e-02,-5.530941486358642578e-02,1.626314073801040649e-01,-3.569404780864715576e-02,-4.163822904229164124e-02,7.938583940267562866e-02,-9.230316430330276489e-02,-2.663013637065887451e-01,-1.991439610719680786e-02,-4.010363295674324036e-02,-7.080710027366876602e-03,-1.704259365797042847e-01,1.219742652028799057e-02,3.966823592782020569e-02,-1.214622035622596741e-01,-7.877216488122940063e-02,-1.378042995929718018e-01,-2.355838753283023834e-02,-4.049770161509513855e-02,1.008274126797914505e-02,-1.513938307762145996e-01,-8.686521323397755623e-04,1.222552284598350525e-01,-2.529360055923461914e-01,-9.872313588857650757e-02,-1.262198667973279953e-02,1.593607813119888306e-01,7.235949486494064331e-02,8.503173291683197021e-02,2.078281342983245850e-01,1.839139014482498169e-01,1.121618524193763733e-01,-1.377781154587864876e-03,2.229097299277782440e-03,-1.218452975153923035e-01,1.325044780969619751e-01,1.046938225626945496e-01,5.183402821421623230e-02,-5.520931631326675415e-02,5.449971929192543030e-02,1.637186296284198761e-02,-9.637609869241714478e-02,1.985694840550422668e-02,-8.987924456596374512e-02,5.345041304826736450e-02,-1.703315973281860352e-02,-9.254211932420730591e-02,-7.687369734048843384e-02,-7.605494465678930283e-03,-8.833792060613632202e-02,3.989803791046142578e-02,-2.969574742019176483e-02,6.959655135869979858e-02,3.763577714562416077e-02,9.611901640892028809e-02,-8.317226916551589966e-02,-5.620492622256278992e-02,-1.176827698945999146e-01,-8.788424730300903320e-02,-1.432865709066390991e-01,-5.474662035703659058e-02,9.686627238988876343e-02,-1.177772209048271179e-01,2.541950717568397522e-02,1.279264837503433228e-01,-1.888067834079265594e-02,-5.303226411342620850e-02,9.925008565187454224e-02,-6.984456628561019897e-02,-4.154921323060989380e-02,7.358652539551258087e-03,1.500570774078369141e-01,5.166922137141227722e-02,1.859849840402603149e-01,9.387534111738204956e-02,1.787486076354980469e-01,7.800567150115966797e-02,1.041190549731254578e-01,1.246256157755851746e-01,-1.383263617753982544e-01,8.757682517170906067e-03,9.922884404659271240e-02,-1.204964816570281982e-01,-1.367320306599140167e-02,-1.710963547229766846e-01,-1.629981100559234619e-01,-1.441951543092727661e-01,-1.886753141880035400e-01,6.237172335386276245e-02,8.345977216958999634e-02,1.203282997012138367e-01,6.350889801979064941e-02,-1.319857835769653320e-01,-3.959082067012786865e-02,6.306650489568710327e-02,-1.610111147165298462e-01,-1.635776609182357788e-01,-2.887438237667083740e-02,-1.142680943012237549e-01,5.038857832551002502e-02,-7.565779145807027817e-03,-2.073987424373626709e-01,-7.622028142213821411e-02,3.332254663109779358e-02,-2.284257411956787109e-01,-9.317088872194290161e-02,-1.186904963105916977e-02,1.279521733522415161e-01,4.299004375934600830e-02,4.586013779044151306e-02,7.317209243774414062e-02,2.800742862746119499e-03,-6.194223091006278992e-02,2.659404277801513672e-02,-1.163428556174039841e-02,-1.572518646717071533e-01,7.195095531642436981e-05,9.036462754011154175e-02,-1.033869087696075439e-01,-1.581557691097259521e-01,-1.400089710950851440e-01,-1.824980229139328003e-01,-1.755597442388534546e-01,-1.131836846470832825e-01,-4.517905041575431824e-02,1.148449704051017761e-01,1.304393857717514038e-01,1.679014563560485840e-01,7.286950200796127319e-02,1.613564342260360718e-01,6.357782334089279175e-02,1.071526333689689636e-01,-2.933008596301078796e-02,-2.365051507949829102e-01,9.715362638235092163e-02,6.905934214591979980e-02,-1.495044827461242676e-01,-1.632147580385208130e-01,-1.740985959768295288e-01,-2.678208053112030029e-01,-1.539454311132431030e-01,-1.270063668489456177e-01,-9.726856835186481476e-03,1.773340441286563873e-02,9.900650009512901306e-03,-1.564688533544540405e-01,6.298048794269561768e-02,-1.515208836644887924e-02,-1.848125159740447998e-01,-1.158231645822525024e-01,-4.391040280461311340e-02,-2.246224554255604744e-03,7.932810485363006592e-02,1.238885987550020218e-02,8.223961293697357178e-02,2.112252451479434967e-02,1.372429728507995605e-01,-6.509071215987205505e-03,-8.112737536430358887e-02,5.186779797077178955e-02,4.200405254960060120e-02
-4.927616566419601440e-02,9.295995533466339111e-02,8.336600661277770996e-02,3.459118679165840149e-02,9.824111312627792358e-02,5.334983021020889282e-02,1.175488904118537903e-02,9.726394712924957275e-02,2.025414258241653442e-01,-1.452641487121582031e-01,-2.169566601514816284e-02,5.117712169885635376e-02,1.935015060007572174e-02,1.723014935851097107e-02,-5.580587778240442276e-03,1.031729131937026978e-01,8.614013344049453735e-02,6.611049920320510864e-02,-5.808254703879356384e-03,-7.622381672263145447e-03,-8.710994571447372437e-02,-8.739729225635528564e-02,1.256763748824596405e-02,5.995729193091392517e-02,-2.161131352186203003e-01,1.099927071481943130e-02,2.747786231338977814e-02,-3.582146018743515015e-02,-1.228092238306999207e-03,7.641693949699401855e-02,-1.125134751200675964e-01,-1.382988095283508301e-01,-4.881370067596435547e-02,-1.235685646533966064e-01,-2.807360514998435974e-02,-1.054991707205772400e-01,-1.973067820072174072e-01,-7.851789146661758423e-02,3.075814619660377502e-02,-3.512528166174888611e-02,-6.348148733377456665e-02,1.042242124676704407e-01,-1.188025847077369690e-01,-2.318873628973960876e-02,1.669878959655761719e-01,-6.858532875776290894e-02,-5.635407567024230957e-02,6.308215111494064331e-02,-7.154789566993713379e-02,-3.946400433778762817e-02,2.124317176640033722e-02,-7.253488525748252869e-03,1.228806823492050171e-01,-4.217964038252830505e-02,-1.567041152156889439e-03,8.916836231946945190e-02,1.013581361621618271e-02,4.666032269597053528e-02,-1.172560825943946838e-01,-1.634429544210433960e-01,-8.743523806333541870e-02,-7.586154341697692871e-02,-2.109301388263702393e-01,-1.487594097852706909e-01,-3.952711448073387146e-02,4.149631783366203308e-02,-1.458073258399963379e-01,-1.246256530284881592e-01,6.204736977815628052e-02,-3.485843539237976074e-02,4.134558606892824173e-03,-3.994257375597953796e-02,-9.433692321181297302e-03,-4.864345118403434753e-02,-2.965926565229892731e-02,-1.289728432893753052e-01,-1.235604211688041687e-01,-1.109732389450073242e-01,-1.241573691368103027e-01,-1.705153584480285645e-01,-1.148699671030044556e-01,-3.929421678185462952e-02,-9.954980015754699707e-02,6.768912822008132935e-02,-4.756435751914978027e-02,-8.963847160339355469e-02,6.222142279148101807e-02,-1.833628267049789429e-01,-1.510648876428604126e-01,2.203772403299808502e-02,-1.661287993192672729e-01,-1.718137562274932861e-01,-7.261268328875303268e-03,-1.626697182655334473e-01,-1.005586683750152588e-01,-6.083756685256958008e-02,-1.306352764368057251e-01,-6.072372198104858398e-02,5.597938597202301025e-02,-1.497121304273605347e-01,-1.878489404916763306e-01,-1.148425508290529251e-02,9.194741398096084595e-02,1.093023717403411865e-01,1.203469559550285339e-01,-7.914572209119796753e-02,-1.130682043731212616e-02,1.003661677241325378e-01,-1.705426722764968872e-01,-5.400547385215759277e-02,-9.107187390327453613e-02,-7.033741474151611328e-02,4.609803482890129089e-02,1.932042092084884644e-02,-2.304471284151077271e-01,-4.954693466424942017e-02,7.384601235389709473e-02,-5.613915249705314636e-02,6.919319182634353638e-02,1.566879153251647949e-01,-6.272487342357635498e-02,-1.121457964181900024e-01,-8.144414983689785004e-03,-9.310493618249893188e-02,-1.289454549551010132e-01,-1.507497578859329224e-01,-1.225213855504989624e-01,-1.961805969476699829e-01,-2.486669272184371948e-02,8.308936655521392822e-02,-3.815059736371040344e-02,4.390915110707283020e-02,1.234352588653564453e-01,4.325542598962783813e-02,5.234521999955177307e-02,-5.062995105981826782e-02,-1.512240171432495117e-01,-3.963396698236465454e-02,-1.390279978513717651e-01,-1.816724389791488647e-01,-9.046083688735961914e-02,-2.559274137020111084e-01,-2.103881984949111938e-01,8.828432112932205200e-02,2.817086409777402878e-03,3.285180032253265381e-02,-4.874898493289947510e-02,-8.252831548452377319e-02,9.001345187425613403e-02,-5.569688603281974792e-02,5.506586655974388123e-02,-8.641581982374191284e-02,9.346909821033477783e-02,-9.015985578298568726e-02,-2.570375800132751465e-01,-2.512746155261993408e-01,-1.317200809717178345e-01,-4.117268603295087814e-03,-2.115561999380588531e-02,-1.660073612583801150e-04,-3.746578097343444824e-02,-7.875958085060119629e-02,-8.482519537210464478e-02,-1.356876194477081299e-01,-1.258644461631774902e-01,-1.888081058859825134e-02,2.241033874452114105e-02,8.795901387929916382e-02,-6.185399740934371948e-02,-4.225531127303838730e-03,4.764780774712562561e-02,1.106086000800132751e-01,1.274711787700653076e-01,7.009057700634002686e-02,1.221313551068305969e-01,1.497055590152740479e-01,1.601756066083908081e-01,4.054043442010879517e-02,6.722066551446914673e-02,1.901451796293258667e-01,-1.078840717673301697e-01,-4.272288456559181213e-02,7.807423174381256104e-02,4.446722567081451416e-02,-2.493684180080890656e-02,9.766543656587600708e-02,-1.008598133921623230e-01,-1.068265959620475769e-01,-2.599907107651233673e-02,-8.013435639441013336e-03,-1.287933532148599625e-02,-3.256221860647201538e-02,-3.522273525595664978e-02,1.544347684830427170e-02,1.380056142807006836e-02,-5.615291371941566467e-02,-8.737328648567199707e-02,9.247628599405288696e-02,-1.471763551235198975e-01,-2.171734571456909180e-01,-2.756732106208801270e-01,-4.427087679505348206e-02,-2.008674740791320801e-01,-1.438088268041610718e-01,-6.942398380488157272e-03,-7.789221405982971191e-02,-1.982047855854034424e-01,2.184183150529861450e-02,1.139359921216964722e-01,1.469298303127288818e-01,-1.153108328580856323e-01,5.449112132191658020e-02,2.246616780757904053e-02,-3.645141422748565674e-02,4.564383532851934433e-03,1.651699692010879517e-01,-7.693315297365188599e-02,-3.095066174864768982e-02,-4.600639268755912781e-02,-2.166534401476383209e-02,-4.206024855375289917e-02,1.123162358999252319e-01,-1.229262873530387878e-01,-3.429782390594482422e-02,2.609156444668769836e-02,9.347182512283325195e-02,9.207139723002910614e-03,6.365463882684707642e-02,-4.215965420007705688e-02,-8.761502802371978760e-02,-1.672751852311193943e-03,5.213134735822677612e-02,-3.138240426778793335e-02,8.037916570901870728e-02,-1.326634883880615234e-01,-1.916982978582382202e-01,-1.130461543798446655e-01,-8.019562810659408569e-02,1.005623936653137207e-01,1.096894815564155579e-01,-2.596819214522838593e-02,1.524770557880401611e-01,9.186606109142303467e-02,-9.708024561405181885e-02,3.620423004031181335e-02,3.910880535840988159e-02,1.789215020835399628e-02,-4.242666065692901611e-02,1.885906159877777100e-01,-1.285873651504516602e-01,-7.587283104658126831e-02,7.459193468093872070e-02,-1.102473065257072449e-01,-1.707624644041061401e-01,-1.540433913469314575e-01,-1.080369055271148682e-01,-1.129762232303619385e-01,-1.434781551361083984e-01,-1.104224752634763718e-02,-1.636911630630493164e-01,-1.113415807485580444e-01,5.685002356767654419e-02,-3.667104989290237427e-02,5.585325136780738831e-02,-8.330379426479339600e-02,1.433686614036560059e-01,1.521179676055908203e-01,-1.081709489226341248e-01,1.136213690042495728e-01,1.441667675971984863e-01,-6.648088991641998291e-02,-8.170608431100845337e-02,-2.757741510868072510e-02,-1.802195794880390167e-03,-2.279778569936752319e-02,-6.713321199640631676e-04,-9.075730293989181519e-02,1.201716065406799316e-02,1.509997844696044922e-01,-1.026230305433273315e-01,-3.728358447551727295e-02,-2.386969029903411865e-01,-4.558056220412254333e-02,-7.353229075670242310e-02,1.758030429482460022e-02,-4.561458155512809753e-02,-6.217521056532859802e-02,5.661144852638244629e-02
-5.954128876328468323e-02,-5.608038231730461121e-02,-2.140959650278091431e-01,1.726312376558780670e-02,-9.231767058372497559e-02,5.789203103631734848e-03,-2.390785142779350281e-02,4.685033857822418213e-02,3.588718175888061523e-02,1.080043539404869080e-01,3.009284660220146179e-02,-1.446679979562759399e-01,6.816499680280685425e-02,1.648045629262924194e-01,-9.528496861457824707e-02,1.029680818319320679e-01,1.017574742436408997e-01,-1.876392811536788940e-01,-2.733663283288478851e-02,1.657441630959510803e-02,8.748751133680343628e-02,-7.958827167749404907e-02,2.110063098371028900e-03,4.496326297521591187e-02,1.156811602413654327e-02,-6.252429634332656860e-02,3.912161290645599365e-02,-1.216716170310974121e-01,-1.542273443192243576e-02,-1.641761809587478638e-01,-1.334662288427352905e-01,-1.659389436244964600e-01,-9.183895890600979328e-04,-1.363987326622009277e-01,-9.346109628677368164e-02,8.588257245719432831e-03,9.221134334802627563e-02,-5.347573757171630859e-02,-7.036483287811279297e-02,-4.412278067320585251e-03,-5.567317828536033630e-02,-4.768326133489608765e-02,3.612869977951049805e-02,-2.192305028438568115e-02,-8.260386437177658081e-02,-1.181067377328872681e-01,-6.736669689416885376e-02,-6.383524835109710693e-02,3.307261317968368530e-02,-1.320243068039417267e-02,6.130024790763854980e-02,-8.864900469779968262e-02,-5.977594107389450073e-02,2.293487824499607086e-02,-2.329503893852233887e-01,-4.220370948314666748e-02,3.774024546146392822e-02,-1.622353643178939819e-01,1.129513420164585114e-02,2.261729538440704346e-02,-1.228407248854637146e-01,-1.239289641380310059e-01,8.172123134136199951e-02,-2.719644270837306976e-02,-8.526779711246490479e-02,8.328412473201751709e-02,2.402879856526851654e-02,1.838462427258491516e-02,-8.249618113040924072e-02,-7.377772778272628784e-02,1.722274813801050186e-03,6.310176849365234375e-02,-7.513478398323059082e-02,9.041730314493179321e-02,6.159057468175888062e-02,-2.070083655416965485e-02,1.058896034955978394e-01,8.138932287693023682e-02,3.933568485081195831e-03,3.738343715667724609e-02,-8.865100890398025513e-02,-9.627711772918701172e-02,6.193459033966064453e-02,-5.017775297164916992e-02,-9.047868661582469940e-03,1.995616778731346130e-02,2.405440434813499451e-02,-2.319090627133846283e-02,9.001953154802322388e-02,5.540795251727104187e-02,7.927653938531875610e-02,3.946066275238990784e-02,8.240094780921936035e-02,5.720879510045051575e-02,1.126121357083320618e-01,9.816980361938476562e-02,7.718636654317378998e-03,-8.193849772214889526e-02,8.913629502058029175e-02,7.914611697196960449e-02,4.798058047890663147e-02,8.683648705482482910e-02,-7.897286675870418549e-03,3.535330295562744141e-02,2.216583117842674255e-02,7.208421081304550171e-02,-7.483118027448654175e-02,-1.379901822656393051e-02,-7.558393757790327072e-03,1.012304499745368958e-01,-9.110093116760253906e-02,-8.395347744226455688e-02,7.427170872688293457e-02,6.754286587238311768e-03,9.863283485174179077e-02,3.809021040797233582e-02,5.422677099704742432e-02,-2.036296129226684570e-01,-3.492937982082366943e-02,-2.544025704264640808e-02,-2.338709682226181030e-01,-1.499408483505249023e-01,2.013535611331462860e-02,-6.782209873199462891e-02,6.492884457111358643e-02,7.443491369485855103e-02,-2.045487426221370697e-02,-3.354742750525474548e-02,2.321312204003334045e-02,-8.093248307704925537e-02,-5.513457953929901123e-02,3.799012303352355957e-02,9.070397168397903442e-02,9.936075657606124878e-02,-5.091850832104682922e-02,-6.696307659149169922e-02,-6.986042112112045288e-02,-5.179847590625286102e-03,-1.067655310034751892e-01,-6.829387694597244263e-02,2.341068116948008537e-03,-1.388530991971492767e-02,1.084865331649780273e-01,4.752627387642860413e-02,-1.716213673353195190e-02,1.518976092338562012e-01,1.514759361743927002e-01,1.205319017171859741e-01,1.737216562032699585e-01,1.303301006555557251e-01,8.885705471038818359e-02,-2.203790238127112389e-03,4.801509901881217957e-02,5.453933030366897583e-03,-7.216694951057434082e-02,-1.854329369962215424e-02,-4.298897832632064819e-02,-1.935611218214035034e-01,-2.603297680616378784e-02,-7.005886733531951904e-02,3.018984198570251465e-02,-4.071077704429626465e-02,6.736034154891967773e-02,1.266528666019439697e-01,-2.637844160199165344e-02,-2.262785844504833221e-02,-1.708487048745155334e-02,-1.318275183439254761e-01,-6.211417913436889648e-02,-7.177021354436874390e-02,5.258069373667240143e-03,1.556249242275953293e-02,1.314332038164138794e-01,-5.539952963590621948e-02,1.587116867303848267e-01,7.517080008983612061e-02,-5.908999592065811157e-02,1.055609136819839478e-01,5.038732290267944336e-02,-1.600709408521652222e-01,4.612854495644569397e-02,6.150464341044425964e-02,-6.278663128614425659e-02,-9.811881184577941895e-02,-1.353603322058916092e-02,-2.740597166121006012e-02,9.879255294799804688e-02,-3.959415480494499207e-02,-6.585944443941116333e-02,5.532572418451309204e-02,7.317522168159484863e-02,4.830124601721763611e-02,-4.071781784296035767e-02,-1.796174235641956329e-02,-3.753916174173355103e-02,2.923076041042804718e-02,9.198368526995182037e-03,-1.043372601270675659e-02,-2.071578651666641235e-01,-9.267307072877883911e-02,1.182389333844184875e-01,-9.208856523036956787e-02,-1.155389919877052307e-01,-1.207535807043313980e-02,-1.281910240650177002e-01,-1.295629590749740601e-01,-1.140841767191886902e-01,1.025241613388061523e-01,-8.170517534017562866e-02,-4.098471999168395996e-02,-6.179198995232582092e-02,-3.109185397624969482e-02,3.987737745046615601e-02,-5.170818790793418884e-02,-5.969035904854536057e-03,9.588675945997238159e-02,2.405881881713867188e-02,5.460412800312042236e-02,1.158319264650344849e-01,-4.524472355842590332e-02,8.589017391204833984e-02,1.188070178031921387e-01,9.375523775815963745e-02,1.488680839538574219e-01,2.587107382714748383e-02,7.555940002202987671e-02,3.525976464152336121e-02,1.647138893604278564e-01,9.574972838163375854e-02,1.836244612932205200e-01,1.267851889133453369e-01,9.548721462488174438e-02,1.386414021253585815e-01,1.382079124450683594e-01,-8.082947880029678345e-02,-5.867897532880306244e-03,-1.028933152556419373e-01,-3.308508917689323425e-02,-1.511053740978240967e-01,-8.968707174062728882e-02,1.828672178089618683e-02,-5.411432310938835144e-02,-1.007931679487228394e-01,-5.663767457008361816e-02,9.665796160697937012e-02,-1.174953356385231018e-01,-4.632039740681648254e-02,-7.638382166624069214e-02,-9.379374980926513672e-02,4.160119220614433289e-02,9.822759777307510376e-02,6.648102402687072754e-02,-1.745129525661468506e-01,-2.631896175444126129e-02,9.690783172845840454e-02,-9.607400000095367432e-02,-2.154861688613891602e-01,-1.768258661031723022e-01,-8.424346894025802612e-02,-2.379652410745620728e-01,-1.740988045930862427e-01,-1.762306317687034607e-02,-1.056041270494461060e-01,-1.899635046720504761e-01,3.186475858092308044e-02,8.466589264571666718e-03,-1.164826750755310059e-01,-2.123354189097881317e-02,-6.087403371930122375e-02,-1.055519953370094299e-01,7.693959772586822510e-02,-7.245311886072158813e-02,-4.008380696177482605e-02,8.308538794517517090e-02,5.213011428713798523e-02,-6.021405383944511414e-02,5.670158937573432922e-02,-9.242130815982818604e-02,9.829404205083847046e-02,1.489770878106355667e-02,-7.325192540884017944e-02,3.444123640656471252e-02,-6.975625455379486084e-02,-7.161740958690643311e-02,1.232810243964195251e-01,-2.221575006842613220e-03,4.342232644557952881e-02,2.900173887610435486e-03
-9.673512727022171021e-02,6.329263001680374146e-02,-1.521391444839537144e-03,9.665655344724655151e-02,9.635419398546218872e-02,1.878773048520088196e-02,-4.886106774210929871e-02,-9.668193757534027100e-02,-8.372108638286590576e-02,-8.996193110942840576e-02,-3.891534358263015747e-02,-1.182470396161079407e-01,-1.660543493926525116e-02,3.202128037810325623e-02,4.185041412711143494e-02,2.379600703716278076e-01,1.339542120695114136e-01,9.151965379714965820e-03,-2.334988862276077271e-02,-1.319851726293563843e-01,4.175616055727005005e-02,-1.747719347476959229e-01,2.140498952940106392e-03,7.959952950477600098e-02,-1.044051721692085266e-01,3.725113347172737122e-02,1.284514963626861572e-01,-1.630077697336673737e-02,1.489372998476028442e-01,2.927272319793701172e-01,9.377267956733703613e-02,4.922646656632423401e-02,6.228338927030563354e-02,-3.641867637634277344e-02,-4.716459661722183228e-03,-1.173480674624443054e-01,-2.191971093416213989e-01,-1.706468909978866577e-01,-1.113236621022224426e-01,-1.851213276386260986e-01,5.954378098249435425e-02,6.790654361248016357e-02,-1.617993041872978210e-02,5.516780912876129150e-02,1.035065725445747375e-01,1.063757538795471191e-01,8.377452194690704346e-02,-3.504490479826927185e-02,-2.972260303795337677e-02,-1.046732887625694275e-01,-1.193080320954322815e-01,-1.124886423349380493e-01,-7.249385118484497070e-02,9.532233327627182007e-02,-1.064838990569114685e-01,-1.199858337640762329e-01,-8.668062835931777954e-02,-1.747214198112487793e-01,9.999598842114210129e-04,-1.666553691029548645e-02,1.670001074671745300e-02,-6.949515640735626221e-02,-4.917047917842864990e-02,-6.193759851157665253e-03,4.963505640625953674e-02,8.878337591886520386e-02,-6.893297284841537476e-02,7.170575857162475586e-02,1.769687235355377197e-02,-8.193134516477584839e-02,4.205885156989097595e-02,-2.838101051747798920e-02,-7.076610624790191650e-02,-8.954031392931938171e-03,-1.951720416545867920e-01,-2.272963821887969971e-01,-4.635665565729141235e-02,4.294534772634506226e-02,-1.357983946800231934e-01,3.656730800867080688e-02,1.968036592006683350e-01,1.555959880352020264e-02,1.573025016114115715e-03,5.303428974002599716e-03,-1.498367190361022949e-01,-5.491440650075674057e-03,-2.809321694076061249e-02,-1.426244974136352539e-01,-2.902484498918056488e-02,-4.992508515715599060e-02,-5.135187134146690369e-02,-7.754342257976531982e-02,7.759495079517364502e-02,-2.120452970266342163e-01,-8.821508288383483887e-02,-3.494254872202873230e-02,-1.158861443400382996e-01,1.065490022301673889e-01,-7.369661331176757812e-02,2.096202038228511810e-02,-2.106130272150039673e-01,-1.858559697866439819e-01,-1.927343606948852539e-01,-1.040633097290992737e-01,-1.480569876730442047e-02,-1.230230089277029037e-02,-4.139652475714683533e-02,-1.623828895390033722e-02,-2.337193638086318970e-01,-4.378428682684898376e-02,-8.511004596948623657e-02,-1.675929576158523560e-01,2.946951426565647125e-03,-9.273787029087543488e-03,-3.648649901151657104e-02,-7.375818490982055664e-02,3.418772295117378235e-02,4.632214829325675964e-02,5.276021733880043030e-02,1.916195601224899292e-01,7.600052654743194580e-02,-4.081705585122108459e-02,5.398776382207870483e-02,-8.891931176185607910e-02,-1.090959534049034119e-01,-1.700107455253601074e-01,-1.886515319347381592e-02,-1.433298289775848389e-01,-2.089833617210388184e-01,-6.590164452791213989e-02,-8.602353930473327637e-02,1.150316074490547180e-01,-5.750254169106483459e-02,-3.198206797242164612e-02,8.951634168624877930e-02,-4.220532998442649841e-02,2.741579152643680573e-02,-1.466476917266845703e-01,-2.244957238435745239e-01,-1.783737242221832275e-01,1.771381311118602753e-02,-2.002771198749542236e-01,-7.451187074184417725e-02,-3.519944474101066589e-02,7.605517655611038208e-02,-4.457138851284980774e-02,-3.360097482800483704e-02,-4.951619729399681091e-02,-8.494747430086135864e-02,-1.363599747419357300e-01,-9.662229567766189575e-02,3.571204841136932373e-02,1.640362590551376343e-01,7.826102524995803833e-02,-2.119783014059066772e-01,-3.638447821140289307e-01,-1.400023102760314941e-01,-8.366523683071136475e-02,-1.698672771453857422e-01,-6.922261416912078857e-02,-2.395473979413509369e-02,9.155883640050888062e-02,-1.006489843130111694e-01,-1.150654722005128860e-02,-1.727074086666107178e-01,-5.663576722145080566e-02,6.513283401727676392e-02,-5.444663763046264648e-02,-3.674628213047981262e-02,1.086341142654418945e-01,1.229623630642890930e-01,8.805309236049652100e-02,1.092390641570091248e-01,-5.319681484252214432e-03,1.394695341587066650e-01,5.310666561126708984e-02,9.435600787401199341e-02,9.242134541273117065e-02,6.421829760074615479e-02,-7.872674614191055298e-02,-1.252537779510021210e-02,-2.611042372882366180e-02,-1.059764903038740158e-02,-1.299816370010375977e-02,-7.702378183603286743e-02,1.051968261599540710e-01,-1.370344161987304688e-01,-7.965721935033798218e-02,-8.403734117746353149e-02,-4.888396244496107101e-03,2.032606303691864014e-02,-1.665918231010437012e-01,-1.150413155555725098e-01,-2.025762200355529785e-01,-7.834710180759429932e-03,-2.300533503293991089e-01,2.549971081316471100e-02,1.210413947701454163e-01,1.159783899784088135e-01,1.037936285138130188e-02,3.917625918984413147e-02,-3.129323199391365051e-02,-1.010243445634841919e-01,2.262164279818534851e-02,-7.123655080795288086e-02,6.431269645690917969e-02,9.967743605375289917e-02,-1.474264413118362427e-01,8.747258037328720093e-02,9.143511205911636353e-02,2.397917583584785461e-02,1.054527238011360168e-01,1.490886956453323364e-01,1.077664047479629517e-01,8.424090594053268433e-02,6.197964772582054138e-03,-6.270417571067810059e-02,-7.437766343355178833e-02,-8.653408288955688477e-02,-1.517953425645828247e-01,-2.054221928119659424e-01,-3.676965087652206421e-02,-2.089217007160186768e-01,-1.637903302907943726e-01,-2.968135848641395569e-02,-1.867281855084002018e-03,6.275921314954757690e-02,-6.729840487241744995e-02,2.896004542708396912e-02,-1.039646938443183899e-01,-9.303504973649978638e-02,2.583778835833072662e-02,1.093755885958671570e-01,1.983235776424407959e-01,4.316379874944686890e-02,-1.362410336732864380e-01,-1.062549725174903870e-01,1.821518316864967346e-02,-2.084588110446929932e-01,-1.384544074535369873e-01,5.544904246926307678e-02,-8.792001754045486450e-02,-3.905452415347099304e-02,-1.169675812125205994e-01,-1.814400777220726013e-02,6.827723234891891479e-02,1.267165224999189377e-02,1.339097023010253906e-01,6.284288316965103149e-02,1.024096235632896423e-01,-6.043867208063602448e-03,1.018990650773048401e-01,8.098145574331283569e-02,-9.451083838939666748e-02,-1.742220222949981689e-01,-1.006504520773887634e-01,8.603665232658386230e-02,3.074186667799949646e-02,8.241443336009979248e-02,1.077206283807754517e-01,6.962217390537261963e-02,-2.229145914316177368e-02,-4.499648697674274445e-03,1.307297796010971069e-01,7.276266068220138550e-02,1.332324147224426270e-01,1.612854450941085815e-01,1.498124003410339355e-01,1.498340964317321777e-01,-5.776956304907798767e-02,-7.867562770843505859e-02,3.854068368673324585e-02,1.189453676342964172e-01,1.327661126852035522e-01,7.348563522100448608e-02,1.284711658954620361e-01,-2.431579492986202240e-02,5.079673603177070618e-02,-1.368357688188552856e-01,1.328539848327636719e-01,-1.802873983979225159e-02,-2.113898694515228271e-01,-4.015220329165458679e-02,-1.724527776241302490e-01,-1.827040165662765503e-01,-2.421566992998123169e-01,-5.101851001381874084e-02,1.027927175164222717e-01
1.661448925733566284e-01,8.232171833515167236e-02,-9.567482769489288330e-02,5.470746755599975586e-02,1.766844242811203003e-01,1.836966574192047119e-01,-8.277761191129684448e-02,1.268215328454971313e-01,2.067758888006210327e-01,1.041770167648792267e-02,-6.464777141809463501e-02,-1.284836679697036743e-01,-1.303011924028396606e-02,-1.893406920135021210e-02,-7.495212554931640625e-02,-4.718522075563669205e-03,1.050691381096839905e-01,-8.000808954238891602e-02,7.847270369529724121e-02,-3.597110137343406677e-02,-2.057282440364360809e-02,-2.073892392218112946e-02,-9.325471520423889160e-02,3.945802152156829834e-02,1.123627927154302597e-02,-3.954972326755523682e-02,4.985779523849487305e-02,-1.109109520912170410e-01,1.074489280581474304e-01,1.472019851207733154e-01,-2.997009456157684326e-02,1.622873730957508087e-02,4.076324775815010071e-02,-1.395427882671356201e-01,-7.474154233932495117e-02,-8.197797834873199463e-02,5.359888821840286255e-02,-1.524161696434020996e-01,-1.450506150722503662e-01,-7.415069639682769775e-02,7.387962937355041504e-02,-5.680491402745246887e-02,-9.548438340425491333e-02,-5.799696967005729675e-02,5.476529896259307861e-02,-9.109770506620407104e-02,-2.269948720932006836e-01,-1.056177075952291489e-02,-1.214498877525329590e-01,-1.450769752264022827e-01,-5.052486062049865723e-02,1.687695831060409546e-02,-1.562876850366592407e-01,-4.424516484141349792e-02,1.936352439224720001e-02,-5.846878141164779663e-02,1.379928886890411377e-01,-8.803708106279373169e-02,-7.696191966533660889e-02,-9.362356364727020264e-02,-3.036957932636141777e-03,-7.119188457727432251e-02,-6.084955856204032898e-02,2.575100213289260864e-02,-4.895601794123649597e-02,2.557385712862014771e-02,-5.256541818380355835e-02,1.203174591064453125e-01,8.225094527006149292e-02,3.482435271143913269e-02,-1.025866940617561340e-01,1.682728901505470276e-02,-3.736587613821029663e-02,-1.052980199456214905e-01,-1.655213087797164917e-01,7.919591665267944336e-02,-6.590189784765243530e-02,-6.043809652328491211e-02,2.414472401142120361e-02,3.755670040845870972e-02,4.310943186283111572e-02,8.138809353113174438e-02,1.312177777290344238e-01,-4.003621637821197510e-03,9.382615238428115845e-02,7.971440255641937256e-02,9.095492772758007050e-03,-1.132815480232238770e-01,2.826631255447864532e-02,-2.358061447739601135e-02,-4.523519426584243774e-02,9.038802236318588257e-02,9.946589171886444092e-02,-8.807418635115027428e-05,2.665651962161064148e-02,1.200251094996929169e-02,5.365578923374414444e-03,-7.732962071895599365e-02,1.926073618233203888e-02,-3.904390381649136543e-03,-5.608663428574800491e-03,-1.765520423650741577e-01,-2.911568386480212212e-03,1.328547596931457520e-01,1.533040869981050491e-02,5.804120562970638275e-03,4.133858159184455872e-02,1.155182570219039917e-01,1.303019374608993530e-02,-4.880962893366813660e-02,-1.060560271143913269e-01,-1.045337840914726257e-01,-5.308182910084724426e-02,1.149529516696929932e-01,-5.919386819005012512e-02,1.131423749029636383e-02,1.926180161535739899e-02,-9.308394044637680054e-02,1.216542571783065796e-01,1.877971738576889038e-01,-1.373667716979980469e-01,1.729484414681792259e-03,1.565998792648315430e-01,-2.093747705221176147e-01,-1.511404663324356079e-01,-1.869400590658187866e-02,2.855583280324935913e-02,3.925381973385810852e-02,6.303170230239629745e-04,1.152096539735794067e-01,1.214937567710876465e-01,-1.147303208708763123e-01,1.375512871891260147e-02,-1.857379265129566193e-02,8.204536139965057373e-02,5.924152955412864685e-02,6.670656800270080566e-02,-3.480743989348411560e-02,1.758733391761779785e-02,6.658044457435607910e-02,7.975719124078750610e-02,-5.512291938066482544e-02,-1.139067858457565308e-01,-8.209233731031417847e-02,3.892015665769577026e-02,-1.091164350509643555e-01,9.829186648130416870e-02,-1.556084305047988892e-01,-1.187248826026916504e-01,2.815833687782287598e-02,-8.404411375522613525e-02,-2.047533839941024780e-01,-1.630082577466964722e-01,2.045973986387252808e-01,1.178524121642112732e-01,-1.867531426250934601e-02,1.392314676195383072e-02,1.161656305193901062e-01,7.434667646884918213e-02,1.337841749191284180e-01,1.174065545201301575e-01,2.477308511734008789e-01,1.134539023041725159e-01,-9.903480857610702515e-02,-1.431320160627365112e-01,-1.388098485767841339e-02,-3.425878658890724182e-02,5.055282637476921082e-02,2.428016811609268188e-02,-1.047016493976116180e-02,-3.576481342315673828e-02,-1.932367235422134399e-01,-2.030863314867019653e-01,-2.001058459281921387e-01,-2.310885787010192871e-01,3.919064998626708984e-03,-2.178409546613693237e-01,-1.526319682598114014e-01,-1.411948651075363159e-01,-1.155337914824485779e-01,6.569387763738632202e-02,-6.373866647481918335e-02,-1.259720176458358765e-01,4.745484516024589539e-02,1.118476837873458862e-01,-1.427657250314950943e-02,5.292959883809089661e-02,-6.573436409235000610e-02,-6.146179046481847763e-03,-8.975541591644287109e-02,3.768291696906089783e-02,3.161314129829406738e-02,-1.895099505782127380e-02,-1.624020040035247803e-01,-5.946284905076026917e-02,-4.230328276753425598e-02,-7.833470404148101807e-02,2.096567861735820770e-02,-2.598339505493640900e-02,-1.031824275851249695e-01,-2.232547700405120850e-01,1.096216291189193726e-01,-4.919758066534996033e-02,-1.646979600191116333e-01,2.471077628433704376e-02,1.227771416306495667e-01,2.431261166930198669e-02,-6.924560293555259705e-03,3.557173907756805420e-02,-2.789180725812911987e-02,-7.718154788017272949e-02,2.216896973550319672e-02,1.772435456514358521e-01,-1.067417263984680176e-01,-3.713164106011390686e-02,1.094419062137603760e-01,8.428262174129486084e-02,1.132856905460357666e-01,1.088194921612739563e-01,4.193435609340667725e-02,-9.259308874607086182e-02,7.677804678678512573e-02,-1.222985982894897461e-01,-6.653393805027008057e-02,7.300933357328176498e-03,1.689170859754085541e-02,-3.079611621797084808e-02,8.470051735639572144e-02,-8.709096163511276245e-02,-1.759293973445892334e-01,-5.505786091089248657e-02,-6.798347830772399902e-02,-1.326472610235214233e-01,-5.765592306852340698e-02,6.915994919836521149e-03,5.764178559184074402e-02,-1.066993549466133118e-01,7.882541418075561523e-02,1.749105006456375122e-01,-1.234413906931877136e-01,-4.191275686025619507e-02,1.268124878406524658e-01,1.523772925138473511e-01,-5.796783789992332458e-02,-2.442296594381332397e-02,-2.360665053129196167e-02,2.675782889127731323e-02,-8.672273904085159302e-02,-4.862762242555618286e-02,-1.372659504413604736e-01,-7.368523627519607544e-02,-9.066309779882431030e-02,1.031928136944770813e-01,-1.755799055099487305e-01,-2.449525296688079834e-01,1.111974492669105530e-01,7.964770495891571045e-02,-1.351640280336141586e-02,2.870051003992557526e-02,-6.000754982233047485e-02,-4.781672731041908264e-02,-1.543897092342376709e-01,-5.168683826923370361e-02,-1.719442196190357208e-02,2.893860684707760811e-03,-1.245478093624114990e-01,-1.150268241763114929e-01,-1.098265051841735840e-01,8.540747687220573425e-03,-2.019475214183330536e-02,1.209229603409767151e-01,7.547282427549362183e-02,-9.205838292837142944e-02,5.693854391574859619e-02,6.570930033922195435e-02,-3.689865767955780029e-02,-1.226953193545341492e-01,7.505664229393005371e-02,1.295673549175262451e-01,7.473690807819366455e-02,1.143044233322143555e-01,2.856997027993202209e-02,-2.176711522042751312e-02,2.722110040485858917e-02,7.964202202856540680e-03,-3.146562352776527405e-02,-6.964301317930221558e-02,8.877840638160705566e-02
-5.687918886542320251e-02,3.391876444220542908e-02,1.475523114204406738e-01,-6.514084339141845703e-02,-5.375775508582592010e-04,-7.821484468877315521e-03,8.649222552776336670e-03,6.260830909013748169e-02,1.477948129177093506e-01,4.724549874663352966e-02,2.315253205597400665e-02,4.474351182579994202e-02,1.116801500320434570e-01,5.900083854794502258e-02,9.434991329908370972e-02,8.286470174789428711e-02,5.399459972977638245e-02,1.429875642061233521e-01,-1.116248816251754761e-01,-5.086368694901466370e-02,9.630440175533294678e-02,-7.141102105379104614e-02,-7.550252974033355713e-02,-4.305226355791091919e-02,-1.117415875196456909e-01,1.292714476585388184e-02,1.577474363148212433e-02,-1.298501342535018921e-01,-1.441575437784194946e-01,-9.232368320226669312e-02,-1.690393686294555664e-01,-1.422358304262161255e-01,-7.818393409252166748e-02,-6.284633278846740723e-02,-7.372016459703445435e-02,-1.423176229000091553e-01,8.489674329757690430e-02,8.412877470254898071e-02,1.367020308971405029e-01,8.767905645072460175e-03,6.522484123706817627e-02,-4.118476063013076782e-02,-1.554693561047315598e-02,6.495323032140731812e-02,7.805713266134262085e-02,-2.407309599220752716e-02,-5.780026316642761230e-03,-9.969089925289154053e-02,-6.724637746810913086e-02,-5.366596579551696777e-02,-9.242724627256393433e-03,-2.012603171169757843e-02,1.195261627435684204e-01,1.772891730070114136e-02,2.902579680085182190e-02,-8.002743870019912720e-02,2.339981682598590851e-02,-2.835395745933055878e-02,7.004991173744201660e-02,-7.622022181749343872e-02,1.521463543176651001e-01,-4.968443885445594788e-02,-7.399541884660720825e-02,-1.469723284244537354e-01,-5.078693106770515442e-02,4.777661990374326706e-03,-1.302267909049987793e-01,-7.721439749002456665e-02,4.371980950236320496e-02,-1.181916370987892151e-01,-9.287609905004501343e-02,7.235665619373321533e-02,-2.434467673301696777e-01,-1.661130189895629883e-01,-7.998333126306533813e-02,-1.769933849573135376e-01,-3.849172964692115784e-02,2.593006379902362823e-02,-1.810072734951972961e-02,-2.355612441897392273e-02,-1.908618956804275513e-02,-2.318033277988433838e-01,5.186235159635543823e-02,2.523107267916202545e-02,-1.849188506603240967e-01,3.194704279303550720e-02,6.104593351483345032e-02,-2.110940217971801758e-01,-9.066451340913772583e-03,1.016601398587226868e-01,-2.172692418098449707e-01,-1.024481654167175293e-01,1.567259989678859711e-02,-1.608130186796188354e-01,-6.574492156505584717e-02,1.208753362298011780e-01,-1.345962733030319214e-01,-1.334327906370162964e-01,-4.138675704598426819e-02,2.372500672936439514e-02,1.016909256577491760e-01,1.277055144309997559e-01,-4.110965877771377563e-02,4.812109470367431641e-02,9.018303453922271729e-02,-1.587130827829241753e-03,4.770010337233543396e-02,8.561711013317108154e-02,-9.019767493009567261e-02,-1.013599988073110580e-02,3.811227530241012573e-02,1.136420387774705887e-02,-9.337946772575378418e-02,4.166924208402633667e-02,-2.010745555162429810e-01,-1.379321366548538208e-01,-5.326521769165992737e-02,-9.461665153503417969e-02,1.286757737398147583e-02,-9.656679630279541016e-02,-9.792006015777587891e-02,-1.474949419498443604e-01,-6.903488188982009888e-02,-2.515889406204223633e-01,-1.355062723159790039e-01,-1.723929196596145630e-01,6.953024864196777344e-02,1.172407343983650208e-01,-6.250252574682235718e-02,1.525138169527053833e-01,3.414262458682060242e-02,4.228740185499191284e-02,-2.934602275490760803e-02,6.528925150632858276e-02,6.536537408828735352e-02,-1.987541466951370239e-01,-1.379845738410949707e-01,1.358752846717834473e-01,-1.761894524097442627e-01,-5.842547491192817688e-02,9.098386019468307495e-02,-1.940335631370544434e-01,-1.721176952123641968e-01,5.752000026404857635e-03,-3.281489014625549316e-02,-1.312558650970458984e-01,1.155269443988800049e-01,-1.551663428544998169e-01,-2.000024542212486267e-02,5.931400135159492493e-02,-1.185137107968330383e-01,-1.411971002817153931e-01,-2.082505449652671814e-02,-1.370915910229086876e-03,3.902300260961055756e-03,-2.201149053871631622e-02,-1.717389002442359924e-02,1.243494749069213867e-01,1.135419383645057678e-01,-6.381323188543319702e-02,1.656287163496017456e-01,9.930050373077392578e-02,-9.403603151440620422e-03,-8.686225116252899170e-02,6.311829388141632080e-02,-3.466495126485824585e-02,-4.270124062895774841e-02,-3.431899845600128174e-02,-8.901263028383255005e-02,1.760577410459518433e-02,8.408454805612564087e-02,1.560919880867004395e-01,1.550844609737396240e-01,-4.904040321707725525e-02,1.105780452489852905e-01,1.015714555978775024e-01,-5.427138507366180420e-02,-3.663588315248489380e-02,-4.174620285630226135e-02,-3.838335163891315460e-03,-1.154255867004394531e-01,2.148484438657760620e-02,-4.008031636476516724e-02,-1.525570750236511230e-01,-8.658526837825775146e-02,9.794302284717559814e-02,-1.694262325763702393e-01,4.397887364029884338e-02,6.830018013715744019e-02,-1.766662597656250000e-01,4.579020664095878601e-02,1.765357553958892822e-01,-8.759807795286178589e-02,2.712701447308063507e-03,5.095957219600677490e-02,-5.021262913942337036e-03,-2.213410660624504089e-02,-1.068639904260635376e-01,-4.736785218119621277e-02,-1.289951950311660767e-01,-1.875560730695724487e-01,-1.864545345306396484e-01,-1.263825446367263794e-01,2.220567315816879272e-02,-1.316272765398025513e-01,-1.121268644928932190e-01,-1.384264230728149414e-01,-5.050439015030860901e-02,-1.966153644025325775e-02,3.245053440332412720e-02,-1.064621657133102417e-01,5.757544189691543579e-02,-5.309636890888214111e-02,-8.595284074544906616e-02,-2.017287909984588623e-02,-2.652394399046897888e-02,-1.301538199186325073e-01,-1.139503493905067444e-01,2.038771361112594604e-01,-1.737394928932189941e-01,1.180029883980751038e-01,1.800818890333175659e-01,-1.975322701036930084e-02,-4.839470237493515015e-02,8.036833256483078003e-02,7.524452358484268188e-02,7.229647785425186157e-02,1.264609396457672119e-01,-7.569271326065063477e-02,6.682510673999786377e-02,5.346775520592927933e-03,-9.422446042299270630e-02,-1.317812055349349976e-01,-2.077656425535678864e-02,-6.377641111612319946e-02,7.370012253522872925e-02,5.153072252869606018e-02,-7.439474761486053467e-02,1.280255317687988281e-01,8.945258706808090210e-02,1.331022828817367554e-01,1.979796588420867920e-01,1.756480485200881958e-01,1.294913887977600098e-02,3.166558593511581421e-02,-3.207850456237792969e-02,-1.059957742691040039e-01,-4.203165322542190552e-02,7.299045473337173462e-02,1.119987200945615768e-02,-4.038389027118682861e-02,6.767661124467849731e-02,-1.805419623851776123e-01,-1.710983179509639740e-02,-5.774392560124397278e-02,-4.790225997567176819e-02,-1.632008329033851624e-02,-8.951579034328460693e-02,-4.115360975265502930e-02,-3.527358919382095337e-02,-4.883213713765144348e-02,1.477602869272232056e-01,5.771340802311897278e-02,7.878161966800689697e-03,3.842129930853843689e-02,6.844893842935562134e-02,6.411499530076980591e-02,-9.333058446645736694e-02,5.183386057615280151e-02,5.192413553595542908e-02,-2.122290059924125671e-02,-6.996046751737594604e-03,-2.065228298306465149e-02,-6.408409774303436279e-02,-2.071429416537284851e-02,9.323867410421371460e-02,-1.390233784914016724e-01,-7.080101221799850464e-02,-3.855948895215988159e-02,-6.809382885694503784e-02,6.995661649852991104e-03,1.142997387796640396e-02,-1.602429747581481934e-01,6.332162022590637207e-02,4.438484832644462585e-02,-1.700794547796249390e-01,-5.282644554972648621e-02,1.081688851118087769e-01
-7.179573178291320801e-02,2.502553910017013550e-02,-6.322301924228668213e-02,-4.718716815114021301e-02,4.891758039593696594e-02,-7.159702479839324951e-02,7.278279215097427368e-02,-5.206092447042465210e-02,-1.963688991963863373e-02,-1.054884567856788635e-01,-9.112192201428115368e-04,8.132885396480560303e-02,-1.218208223581314087e-01,-3.625394776463508606e-02,-8.885259926319122314e-02,-8.914114534854888916e-02,-7.336094975471496582e-02,-1.329012960195541382e-01,4.619598388671875000e-02,2.738950075581669807e-03,6.191625073552131653e-02,1.084807068109512329e-01,-2.531787194311618805e-02,-7.497745752334594727e-02,-8.907988667488098145e-02,2.651521191000938416e-02,4.948097094893455505e-02,-6.822820752859115601e-02,-5.122338235378265381e-02,-1.120452880859375000e-01,-9.503694623708724976e-02,-9.332693368196487427e-02,-8.535279333591461182e-02,-3.415456041693687439e-02,-8.316640555858612061e-02,5.164406448602676392e-02,4.347412288188934326e-02,6.441340595483779907e-02,1.042808145284652710e-01,6.454361602663993835e-03,4.468982573598623276e-03,-6.155218556523323059e-02,7.066596299409866333e-02,4.179050773382186890e-02,8.898801356554031372e-02,-3.178375586867332458e-02,-6.465650349855422974e-02,-1.140622571110725403e-01,-5.849639698863029480e-02,-2.008190378546714783e-02,-9.203932434320449829e-02,-1.107027456164360046e-01,-1.885243207216262817e-01,-1.198707967996597290e-01,-1.312958300113677979e-01,-1.501728892326354980e-01,-2.346833348274230957e-01,-4.777366295456886292e-02,-6.674364954233169556e-02,-1.483504176139831543e-01,-6.899009644985198975e-02,9.350036270916461945e-03,-1.384707242250442505e-01,7.015857845544815063e-02,-7.560976594686508179e-02,9.081622958183288574e-02,-1.577757881022989750e-03,8.389741927385330200e-02,3.469204902648925781e-02,1.983107626438140869e-02,-3.526953607797622681e-02,1.062527373433113098e-01,1.792337559163570404e-02,-3.355835378170013428e-02,3.228714689612388611e-02,2.061147987842559814e-02,-2.477273531258106232e-02,3.003052622079849243e-02,-1.612441614270210266e-02,2.324775326997041702e-03,-5.701131746172904968e-02,5.186619237065315247e-02,1.057323962450027466e-01,-2.556064166128635406e-02,1.174125224351882935e-01,6.314067868515849113e-04,3.646184131503105164e-02,-8.336692303419113159e-02,-1.246105600148439407e-02,1.188260316848754883e-01,1.392903830856084824e-02,-7.064524292945861816e-02,-3.718588128685951233e-02,1.156945824623107910e-01,6.351936608552932739e-03,-1.234378572553396225e-02,-1.513668522238731384e-02,-4.621003568172454834e-02,-8.481113612651824951e-02,7.164295762777328491e-02,1.057731360197067261e-01,1.400903798639774323e-02,7.314302958548069000e-03,-1.757571101188659668e-02,9.059018641710281372e-02,1.520007103681564331e-02,3.228292101994156837e-03,7.846959680318832397e-02,9.605254232883453369e-02,-5.546790733933448792e-02,-2.308123931288719177e-02,-3.558374301064759493e-04,-3.292885422706604004e-02,2.319191955029964447e-02,1.122092306613922119e-01,1.134492158889770508e-01,-6.738776806741952896e-03,-3.731931746006011963e-02,3.040225245058536530e-02,1.877418253570795059e-03,-4.917026497423648834e-03,-5.076081305742263794e-02,4.699105024337768555e-02,-2.847711555659770966e-03,4.732172563672065735e-02,8.300024271011352539e-02,3.599676862359046936e-02,-1.352442204952239990e-01,-3.741797804832458496e-02,-4.019710794091224670e-02,-5.894616246223449707e-02,6.286755949258804321e-02,-3.840182349085807800e-02,6.024583429098129272e-02,-7.189454510807991028e-03,-3.339992836117744446e-02,2.550354786217212677e-02,5.064043030142784119e-02,8.679652214050292969e-02,1.208371147513389587e-01,7.181797176599502563e-02,1.044189855456352234e-01,8.918169885873794556e-02,1.063657179474830627e-01,6.460967473685741425e-03,8.854785561561584473e-02,6.267625093460083008e-02,1.617737300693988800e-02,-7.208636403083801270e-02,-1.315883547067642212e-01,-9.708127472549676895e-04,-1.407479345798492432e-01,-6.935240328311920166e-02,-8.299678564071655273e-02,-1.356720328330993652e-01,-2.383408695459365845e-01,-1.616391688585281372e-01,-5.743706971406936646e-02,-2.196545302867889404e-01,-1.559753119945526123e-01,-1.142884939908981323e-01,4.602305218577384949e-02,-5.762105435132980347e-02,1.193208396434783936e-01,-2.772263437509536743e-02,-1.767918840050697327e-02,1.198942810297012329e-01,1.051638126373291016e-01,-3.120970726013183594e-02,9.328376501798629761e-02,6.434917449951171875e-02,-7.974809408187866211e-02,6.895793974399566650e-02,4.252538830041885376e-02,-5.921447277069091797e-02,-1.307845413684844971e-01,-1.079043149948120117e-01,-6.962063908576965332e-02,-6.348928064107894897e-02,-1.211160887032747269e-02,2.948811277747154236e-02,-3.092015162110328674e-02,-4.628533497452735901e-02,-1.864097081124782562e-02,1.247124150395393372e-01,3.948198258876800537e-02,3.587161004543304443e-02,-2.423658408224582672e-02,-2.254402451217174530e-02,-1.603373885154724121e-02,-1.216621138155460358e-02,-6.939975917339324951e-02,6.169296428561210632e-02,1.559276226907968521e-02,9.931188076734542847e-02,-4.648701753467321396e-03,-7.874783128499984741e-02,-3.246536105871200562e-02,-1.404505968093872070e-01,-4.578754305839538574e-03,-5.799063295125961304e-02,-1.011886671185493469e-01,-2.051133662462234497e-01,-5.027960985898971558e-02,7.361813914030790329e-03,-1.138118132948875427e-01,-3.109008446335792542e-02,-2.581515535712242126e-02,-3.237612918019294739e-02,-9.094844758510589600e-02,-5.929343774914741516e-02,-1.074975449591875076e-02,-5.023571848869323730e-02,9.273599833250045776e-02,-2.078862115740776062e-02,3.059837035834789276e-02,8.236279338598251343e-02,-5.367554351687431335e-02,-1.684967544861137867e-03,-5.879911407828330994e-02,1.420483272522687912e-02,-6.690867990255355835e-02,-4.274509102106094360e-02,-4.619018360972404480e-02,-8.003017306327819824e-02,5.155581608414649963e-02,-4.614886641502380371e-02,1.240288466215133667e-01,-7.333096861839294434e-02,5.521597713232040405e-02,5.218257382512092590e-02,-4.086298123002052307e-02,-1.466751396656036377e-01,-1.945387572050094604e-01,-1.367749869823455811e-01,-1.406525224447250366e-01,-1.170387938618659973e-01,7.706680893898010254e-02,1.701544597744941711e-02,-1.081469431519508362e-01,-1.141852810978889465e-01,-6.831496208906173706e-02,-6.574345380067825317e-02,-4.785392805933952332e-02,2.071564458310604095e-02,-2.253577671945095062e-02,1.203684136271476746e-03,1.799975149333477020e-02,-7.640772964805364609e-03,8.528985828161239624e-02,-6.460860371589660645e-02,1.041850969195365906e-01,-2.057727724313735962e-01,-1.234817802906036377e-01,-1.988818794488906860e-01,-7.908277958631515503e-02,-1.324111521244049072e-01,-6.203813850879669189e-02,-5.997877940535545349e-02,-1.248337104916572571e-01,-1.198277622461318970e-01,9.824213385581970215e-02,8.151470869779586792e-02,5.115301813930273056e-03,2.519194781780242920e-02,-5.362292751669883728e-02,-7.871526479721069336e-02,6.995347328484058380e-03,4.690209776163101196e-02,8.457263559103012085e-02,5.751802772283554077e-02,7.162575609982013702e-03,5.505540966987609863e-02,-5.361814796924591064e-02,1.589835062623023987e-02,9.947215765714645386e-02,-2.629356831312179565e-02,-9.831153787672519684e-03,9.760786592960357666e-02,6.496641039848327637e-02,8.116742596030235291e-03,-4.405906796455383301e-02,1.240132153034210205e-01,-5.550344288349151611e-02,1.895237341523170471e-02,-5.952772125601768494e-02,-3.501651808619499207e-04,6.145754083991050720e-02
-3.741499409079551697e-02,-1.167188286781311035e-01,2.569081448018550873e-02,-1.056836321949958801e-01,-2.978661842644214630e-02,-1.635015308856964111e-01,5.996137484908103943e-02,4.660724103450775146e-02,3.617842122912406921e-02,1.778188347816467285e-01,-4.736165702342987061e-02,-8.403069525957107544e-02,1.319887489080429077e-01,2.980164811015129089e-02,-1.180522888898849487e-01,-4.894655942916870117e-02,-8.288365602493286133e-02,-1.642955243587493896e-01,-5.562761798501014709e-02,1.286714226007461548e-01,1.177473440766334534e-01,8.639673143625259399e-02,-3.414233401417732239e-02,-1.000941917300224304e-01,1.257577836513519287e-01,-4.583009704947471619e-02,-6.831409782171249390e-02,-9.603018313646316528e-02,-1.882189214229583740e-01,-9.378083795309066772e-02,-2.722845375537872314e-01,-6.783066689968109131e-02,-8.879513293504714966e-02,-1.154782399535179138e-01,1.214346140623092651e-01,1.910932213068008423e-01,-3.909487277269363403e-02,4.411833360791206360e-02,-8.960826694965362549e-02,-3.210678230971097946e-03,-9.735787287354469299e-03,-5.431548506021499634e-02,-7.421540468931198120e-02,-2.730718441307544708e-02,9.021202102303504944e-03,-1.594862192869186401e-01,7.692729681730270386e-02,3.020461183041334152e-03,-1.041381657123565674e-01,-2.746296115219593048e-02,-2.583254314959049225e-02,4.975064843893051147e-02,-3.134039416909217834e-02,-5.229570716619491577e-02,-1.484122574329376221e-01,-1.743497997522354126e-01,-1.689387410879135132e-01,-3.006966225802898407e-02,-4.780371859669685364e-02,-6.072376668453216553e-02,1.398283522576093674e-02,2.764122560620307922e-02,-3.728601336479187012e-02,-5.427260696887969971e-02,1.039151251316070557e-01,-7.348696142435073853e-02,1.298965793102979660e-02,5.982364714145660400e-02,4.147563129663467407e-02,9.894676506519317627e-02,5.881400033831596375e-02,4.433691501617431641e-02,-4.338917136192321777e-02,-5.290525406599044800e-02,7.434903830289840698e-02,8.286244422197341919e-02,1.145533695816993713e-01,-5.633049830794334412e-02,-2.021088264882564545e-02,-2.369849942624568939e-02,-3.308819979429244995e-02,-6.016840413212776184e-02,5.204387381672859192e-02,1.008593291044235229e-01,8.415461331605911255e-02,1.230660378932952881e-01,1.182330213487148285e-02,-5.333680659532546997e-02,-4.591583088040351868e-02,-7.403595000505447388e-02,1.003108220174908638e-03,4.602738656103610992e-03,2.265558764338493347e-02,8.367373049259185791e-02,1.067117508500814438e-02,9.217336773872375488e-02,-7.664177566766738892e-02,3.697506710886955261e-02,-2.725802548229694366e-02,4.273771867156028748e-02,-3.767465054988861084e-02,1.366027742624282837e-01,-1.702063903212547302e-02,5.659471452236175537e-02,-1.177452653646469116e-01,-5.959313735365867615e-02,4.893398657441139221e-02,-1.459129452705383301e-01,8.678596466779708862e-02,-4.404667392373085022e-02,1.600493304431438446e-02,4.891691263765096664e-03,-6.611121445894241333e-02,-3.804868832230567932e-02,9.690435975790023804e-02,1.962497644126415253e-02,-3.376168385148048401e-02,-1.480407118797302246e-01,-1.324641704559326172e-01,-1.420910507440567017e-01,-1.961062699556350708e-01,-8.483417332172393799e-02,-5.826041474938392639e-02,-1.652859747409820557e-01,1.902382820844650269e-02,1.704280078411102295e-01,-8.461888134479522705e-02,7.938382774591445923e-02,-1.963259279727935791e-02,2.724217064678668976e-02,-7.913935184478759766e-02,-1.060929521918296814e-01,-1.555461529642343521e-02,6.373164057731628418e-02,-2.512069046497344971e-02,-6.279534101486206055e-02,-6.297004967927932739e-02,1.167121678590774536e-01,-8.858610689640045166e-02,4.908918216824531555e-02,7.645181566476821899e-02,9.853217005729675293e-02,6.056710612028837204e-03,-6.170396506786346436e-02,-4.702390730381011963e-02,7.237970829010009766e-02,9.660920500755310059e-02,1.374751627445220947e-01,8.207825571298599243e-02,1.546123027801513672e-01,6.592877209186553955e-02,7.860123366117477417e-02,-6.790827959775924683e-02,-2.170064449310302734e-01,-8.501067757606506348e-03,-6.765698548406362534e-03,-1.173350960016250610e-01,-1.514254510402679443e-01,-1.040127575397491455e-01,3.519664332270622253e-02,1.237093843519687653e-02,-3.512287512421607971e-02,4.326629638671875000e-02,7.888318598270416260e-02,5.251796916127204895e-02,-4.770772159099578857e-02,-3.475736826658248901e-02,2.775283530354499817e-02,6.477519124746322632e-02,7.875422015786170959e-03,5.204872786998748779e-02,1.492082029581069946e-01,-5.517928302288055420e-02,-3.560335934162139893e-02,4.550997167825698853e-02,-8.354471623897552490e-02,-7.187388092279434204e-02,8.029764145612716675e-02,3.267519921064376831e-02,-1.490194797515869141e-01,2.466893382370471954e-02,-3.839030396193265915e-03,4.103383049368858337e-02,-5.832568556070327759e-02,-5.818314477801322937e-02,-5.417641624808311462e-02,4.394251108169555664e-02,1.974514685571193695e-02,4.764894768595695496e-02,-4.421327635645866394e-02,5.532098002731800079e-03,1.657228358089923859e-02,2.542151324450969696e-02,7.670973241329193115e-02,5.546348541975021362e-02,5.940791219472885132e-02,9.123703092336654663e-02,-2.105597034096717834e-02,-1.919269561767578125e-01,-4.260349273681640625e-02,9.706090390682220459e-02,-2.874220907688140869e-02,-6.552276015281677246e-02,-7.026585936546325684e-02,-2.652775309979915619e-02,-6.096130982041358948e-02,-1.610386669635772705e-01,1.575479656457901001e-02,-1.111638695001602173e-01,-1.420865505933761597e-01,8.091974258422851562e-02,-2.155411802232265472e-02,-4.068599268794059753e-02,-1.014425903558731079e-01,-6.860043853521347046e-02,-1.598138944245874882e-03,-1.081503182649612427e-01,5.056365951895713806e-02,6.634291261434555054e-02,3.893388807773590088e-02,-3.594013676047325134e-02,-5.179244279861450195e-02,1.078692451119422913e-01,1.021465286612510681e-02,-5.311062932014465332e-02,4.818044544663280249e-04,1.479111164808273315e-01,5.319415591657161713e-03,7.375030219554901123e-02,1.925428360700607300e-01,6.541979312896728516e-02,1.172631978988647461e-03,-4.520724341273307800e-02,4.784139990806579590e-02,-1.408618241548538208e-01,-1.260920017957687378e-01,-5.692230537533760071e-02,-6.496430933475494385e-02,-6.412739306688308716e-02,-1.089430525898933411e-01,2.876760065555572510e-02,-4.653222858905792236e-03,-2.047308534383773804e-01,5.080755427479743958e-02,1.046433225274085999e-01,-7.236775010824203491e-02,3.603354096412658691e-02,-8.184971660375595093e-02,2.251038141548633575e-02,7.436406798660755157e-03,1.782229915261268616e-02,7.740280777215957642e-02,-1.198899745941162109e-01,8.262637257575988770e-02,-2.323208190500736237e-02,-9.761966019868850708e-02,-1.094139218330383301e-01,-3.663258254528045654e-02,-1.618493497371673584e-01,-1.657842844724655151e-01,-2.024073302745819092e-01,9.144770354032516479e-02,-1.040123924612998962e-01,-1.550593227148056030e-01,4.030136764049530029e-02,-2.002985924482345581e-01,-1.246721222996711731e-01,-4.627717193216085434e-03,-1.172300353646278381e-01,-3.903689235448837280e-02,5.676934123039245605e-02,6.137947365641593933e-02,-2.863248437643051147e-02,-8.676318824291229248e-02,7.989334315061569214e-02,-5.158491060137748718e-02,-5.781856551766395569e-02,5.582145601511001587e-02,1.102036833763122559e-01,1.877693273127079010e-02,-2.780757658183574677e-02,-3.417793288826942444e-02,-1.891259476542472839e-02,1.173232942819595337e-01,-5.147852003574371338e-02,6.140534579753875732e-02,5.214469507336616516e-02,-1.736480370163917542e-02
5.649464949965476990e-02,-9.476590901613235474e-02,-4.718354344367980957e-02,4.345584660768508911e-02,-1.795814931392669678e-02,2.163871563971042633e-02,1.051069498062133789e-01,8.622527122497558594e-02,8.769045770168304443e-02,-9.366254508495330811e-02,-1.774219870567321777e-01,-1.306415200233459473e-01,-6.819881498813629150e-02,-8.226549625396728516e-02,-2.760089747607707977e-02,-2.403951995074748993e-02,-1.838651597499847412e-01,-1.539737135171890259e-01,1.148878335952758789e-01,3.449511528015136719e-02,-6.278598308563232422e-02,-7.103034853935241699e-02,2.646387182176113129e-02,-5.908563360571861267e-02,1.151704695075750351e-02,-5.457223951816558838e-02,5.871298536658287048e-02,1.217108815908432007e-01,1.215628385543823242e-01,9.207201004028320312e-02,1.069369763135910034e-01,-3.482643887400627136e-02,-1.491383556276559830e-02,-1.898110657930374146e-01,-1.086806803941726685e-01,-1.064035519957542419e-01,-7.048783451318740845e-02,-4.253485053777694702e-02,7.851774990558624268e-02,5.491611361503601074e-02,6.894416362047195435e-02,-1.309890765696763992e-03,9.430261701345443726e-02,3.619582951068878174e-02,1.740320771932601929e-02,-3.703038021922111511e-02,-1.101668402552604675e-01,1.185876317322254181e-02,-1.711848825216293335e-01,-6.268679350614547729e-02,-6.973144598305225372e-03,6.759746372699737549e-02,-2.509703394025564194e-03,-3.491344302892684937e-02,4.053748026490211487e-02,1.342435926198959351e-01,5.859843641519546509e-02,6.554380804300308228e-02,-5.500150844454765320e-02,-2.778526209294795990e-02,-1.435832027345895767e-02,1.743523590266704559e-02,-3.976661711931228638e-02,8.822502940893173218e-02,4.679362848401069641e-02,3.591941297054290771e-02,-1.041127443313598633e-01,8.755818009376525879e-03,-6.792655587196350098e-02,-4.684736952185630798e-02,-8.385814726352691650e-02,-1.335129979997873306e-02,-7.546218484640121460e-02,-6.854596734046936035e-02,-1.016735807061195374e-01,7.755430042743682861e-02,4.940493777394294739e-02,-2.774418704211711884e-02,1.539407372474670410e-01,7.255445420742034912e-02,6.862529367208480835e-02,-4.880708456039428711e-02,7.051159441471099854e-02,-1.611769944429397583e-02,-2.163831703364849091e-02,4.374683648347854614e-02,-4.934594780206680298e-02,-8.272735029458999634e-02,-1.206425670534372330e-02,-4.354349896311759949e-02,8.356340229511260986e-03,-7.556416839361190796e-02,-6.869184225797653198e-02,-4.097536578774452209e-02,-1.576657034456729889e-02,2.801278419792652130e-02,1.099211256951093674e-02,-9.266958385705947876e-02,-2.290045097470283508e-02,-8.160585910081863403e-02,-1.042490750551223755e-01,-1.069495733827352524e-02,-2.535748854279518127e-02,1.036201193928718567e-01,1.064387038350105286e-01,1.045686900615692139e-01,4.309873655438423157e-02,7.151810824871063232e-02,-1.202822383493185043e-02,4.738756641745567322e-02,3.121718764305114746e-02,6.957000494003295898e-02,-5.926959682255983353e-03,4.579425230622291565e-02,7.058238983154296875e-02,-1.217793449759483337e-01,-1.179069280624389648e-01,1.064744815230369568e-01,6.677791476249694824e-02,1.818474680185317993e-01,1.184530928730964661e-01,3.917010128498077393e-02,-7.215539366006851196e-02,-9.695774316787719727e-02,-8.400712907314300537e-02,-4.356339201331138611e-02,-2.011672407388687134e-02,-8.679496496915817261e-02,-3.585117310285568237e-02,6.244504079222679138e-02,3.210955485701560974e-02,8.709347993135452271e-02,-4.927941039204597473e-02,-8.409006148576736450e-02,-6.705322116613388062e-02,-3.240768611431121826e-02,-6.147360056638717651e-02,-1.109686195850372314e-01,-7.111432403326034546e-02,-5.130314081907272339e-02,-9.341126680374145508e-02,1.258823722600936890e-01,8.340986073017120361e-02,-2.275208197534084320e-02,-9.355393797159194946e-02,-2.006580233573913574e-01,-1.918065994977951050e-01,-8.278521150350570679e-02,-4.399169236421585083e-02,-9.824727661907672882e-03,-3.154952311888337135e-03,5.466002225875854492e-02,-1.267597526311874390e-01,6.516100466251373291e-02,3.738876665011048317e-03,-4.687592014670372009e-02,-1.237121410667896271e-03,1.053095981478691101e-01,2.382495999336242676e-02,8.282914757728576660e-02,1.778183579444885254e-01,1.539649441838264465e-02,-8.227016031742095947e-02,-4.805416241288185120e-02,2.779532596468925476e-02,7.817491888999938965e-02,8.579505234956741333e-02,1.545788161456584930e-02,2.484373375773429871e-02,-3.402317687869071960e-02,7.817319035530090332e-02,-6.806460022926330566e-02,-1.217376813292503357e-01,-5.120264366269111633e-02,-8.128506690263748169e-02,-7.635886967182159424e-02,-1.724223494529724121e-01,-1.948807686567306519e-01,-7.055919617414474487e-02,-1.590052098035812378e-01,-9.151858277618885040e-03,4.503792151808738708e-02,3.309144452214241028e-02,9.094846993684768677e-02,-7.712018489837646484e-02,6.619433872401714325e-03,-9.236925840377807617e-02,-1.049192026257514954e-01,7.829678244888782501e-03,9.187413752079010010e-02,5.777491629123687744e-02,-1.600348390638828278e-02,4.915288183838129044e-03,-1.430462449789047241e-01,-6.746345758438110352e-02,-3.830959321931004524e-04,-1.111883744597434998e-01,-8.017734438180923462e-02,1.003814116120338440e-01,-6.678261607885360718e-02,-9.270229190587997437e-02,1.514123231172561646e-01,6.616654992103576660e-02,2.309501543641090393e-02,2.211495190858840942e-01,6.826201081275939941e-02,1.336005926132202148e-01,8.199218660593032837e-03,1.398915499448776245e-01,6.826233118772506714e-02,1.502078622579574585e-01,1.243235170841217041e-01,-2.052109315991401672e-02,-4.151115566492080688e-02,-4.841432347893714905e-02,-3.360508754849433899e-02,-3.228858858346939087e-02,1.078435103408992290e-03,-1.227481849491596222e-02,1.324843987822532654e-02,4.893406853079795837e-02,-1.211598142981529236e-01,-4.749218001961708069e-03,-1.043202877044677734e-01,-6.901998817920684814e-02,-3.439129516482353210e-02,-7.926060259342193604e-02,-1.452588140964508057e-01,-4.359494522213935852e-02,-1.530720740556716919e-01,-5.750303715467453003e-02,-2.799213677644729614e-02,-8.007626980543136597e-02,-1.271425932645797729e-01,-1.551360040903091431e-01,-1.159194409847259521e-01,-5.571437254548072815e-02,-1.556597054004669189e-01,-1.540216431021690369e-02,-4.597463458776473999e-02,-3.800116851925849915e-02,1.086895354092121124e-02,1.963574886322021484e-01,9.508692473173141479e-02,-8.523936383426189423e-03,5.332071706652641296e-02,7.625952363014221191e-02,5.565456300973892212e-02,-5.790045484900474548e-02,-1.250154674053192139e-01,-5.845238268375396729e-02,-3.161784633994102478e-02,1.679617678746581078e-03,-2.376571297645568848e-03,-3.904380276799201965e-02,8.555363863706588745e-02,-3.650280833244323730e-02,1.380058974027633667e-01,7.934575527906417847e-02,7.324213534593582153e-02,8.747502416372299194e-02,-7.767725735902786255e-03,6.457109004259109497e-02,1.186673715710639954e-01,1.064490824937820435e-01,-8.990308269858360291e-03,8.109105378389358521e-02,-1.423576772212982178e-01,-1.087940558791160583e-01,-2.073807828128337860e-02,1.182463988661766052e-01,-2.803156338632106781e-02,9.355682134628295898e-02,6.591673195362091064e-02,3.846455737948417664e-02,-2.858696691691875458e-02,-5.841944739222526550e-02,-7.385138422250747681e-02,5.440868902951478958e-03,1.134184151887893677e-01,-2.565333805978298187e-02,-7.617298513650894165e-02,3.189542517066001892e-02,-1.291819661855697632e-01,-3.238331526517868042e-02,6.762881577014923096e-02,1.522044390439987183e-01,1.254188418388366699e-01
-2.309590391814708710e-02,3.781325370073318481e-02,3.379580006003379822e-02,9.022210538387298584e-02,-6.430855393409729004e-02,-1.694385856389999390e-01,-1.158478483557701111e-01,-2.868619933724403381e-02,-6.061618775129318237e-02,-1.780368536710739136e-01,-8.785228431224822998e-02,-5.670354515314102173e-02,3.727446775883436203e-03,1.572357490658760071e-02,-5.155663192272186279e-02,1.048314049839973450e-01,-8.609242737293243408e-02,-6.214314326643943787e-02,-6.025209557265043259e-03,1.147392168641090393e-01,-8.102370798587799072e-02,6.492259353399276733e-02,-1.141253039240837097e-01,2.252479828894138336e-02,-2.186839655041694641e-02,-5.598745122551918030e-02,-3.240527957677841187e-02,9.491436183452606201e-02,6.220202147960662842e-02,1.291548274457454681e-02,6.813972443342208862e-02,6.308686733245849609e-02,-6.128222867846488953e-02,6.831455230712890625e-02,2.837107144296169281e-02,3.758849948644638062e-02,8.948857337236404419e-02,-4.470790922641754150e-02,3.114840574562549591e-02,-6.502903997898101807e-02,5.372085422277450562e-02,1.434525195509195328e-02,-1.467584669589996338e-01,-1.834863871335983276e-01,-5.400351434946060181e-02,-6.845156848430633545e-02,1.002726983278989792e-02,5.105327069759368896e-02,3.729075193405151367e-02,1.146973147988319397e-01,9.101995080709457397e-02,1.122870594263076782e-01,1.150337085127830505e-01,3.702032566070556641e-02,5.007532611489295959e-02,1.335297673940658569e-01,3.580721840262413025e-02,3.881796449422836304e-02,6.863730400800704956e-02,1.411748826503753662e-01,-1.734263449907302856e-02,2.669813483953475952e-02,1.137283369898796082e-01,-2.018405124545097351e-02,3.401221334934234619e-02,1.230242941528558731e-02,9.678303450345993042e-02,1.959800953045487404e-03,5.561826005578041077e-02,3.671185672283172607e-02,-1.181306466460227966e-01,-9.757453203201293945e-02,1.266396194696426392e-01,-8.751861751079559326e-03,1.090483441948890686e-01,9.952925145626068115e-03,9.176813066005706787e-03,1.336760967969894409e-01,3.673426806926727295e-02,4.140048101544380188e-02,-3.116836771368980408e-02,1.083806008100509644e-01,-7.302901148796081543e-02,-1.115613505244255066e-01,-1.542279403656721115e-02,-9.426829963922500610e-02,-3.127336874604225159e-02,-1.666245460510253906e-01,1.472464762628078461e-02,-1.193058788776397705e-01,7.931870222091674805e-02,5.660868436098098755e-02,1.043093353509902954e-01,2.754590660333633423e-02,2.581109665334224701e-02,7.280170917510986328e-02,-1.077862903475761414e-01,-1.124473661184310913e-01,-3.550203517079353333e-02,5.832106992602348328e-02,1.012847945094108582e-01,-3.380116447806358337e-02,1.164471581578254700e-01,-1.380318775773048401e-02,-7.317519187927246094e-02,-4.491292871534824371e-03,-4.730827361345291138e-02,-1.102874055504798889e-01,9.796082973480224609e-02,-1.833724975585937500e-02,6.355528533458709717e-02,-3.357387706637382507e-02,-6.034195795655250549e-02,1.464899908751249313e-02,-4.585971683263778687e-02,-1.631214916706085205e-01,-1.812002211809158325e-01,1.941349543631076813e-02,-8.135576732456684113e-03,-1.780107431113719940e-02,-1.567622423171997070e-01,1.296384911984205246e-02,-9.510599821805953979e-02,-3.881429508328437805e-02,3.284673765301704407e-02,4.892953485250473022e-02,-8.520309627056121826e-02,-5.460729449987411499e-02,-6.357315182685852051e-02,6.702834740281105042e-03,-3.971322625875473022e-02,3.089946508407592773e-02,1.583809405565261841e-01,3.768202662467956543e-02,3.568368405103683472e-02,1.346398144960403442e-01,9.837158769369125366e-02,3.592745959758758545e-02,-1.708779670298099518e-02,-4.372388124465942383e-02,4.012363776564598083e-02,-1.060002818703651428e-01,-1.252730041742324829e-01,6.148589402437210083e-02,-1.041290815919637680e-02,8.249894529581069946e-02,6.142405793070793152e-02,-8.081628382205963135e-02,2.336867898702621460e-02,-4.514683503657579422e-03,-9.247820079326629639e-02,-4.778485745191574097e-02,1.966435834765434265e-02,-1.141915842890739441e-02,-2.915674820542335510e-02,-9.730267338454723358e-03,1.804745644330978394e-01,-9.543033316731452942e-03,1.465119700878858566e-02,2.005155682563781738e-01,-6.476857233792543411e-03,8.676895499229431152e-02,-2.195436693727970123e-02,-2.566674910485744476e-02,6.137204915285110474e-02,-4.147670790553092957e-02,6.785161048173904419e-02,-6.560963392257690430e-02,3.148981928825378418e-02,5.451173335313796997e-02,4.452273622155189514e-02,-5.173420906066894531e-02,-2.226566523313522339e-02,-4.967295005917549133e-02,-2.153325453400611877e-02,1.046665981411933899e-01,6.848989427089691162e-02,3.511286526918411255e-02,3.320776671171188354e-02,-8.579422533512115479e-02,6.254106014966964722e-02,7.594885677099227905e-02,6.849210709333419800e-02,6.153440847992897034e-02,-1.191409751772880554e-01,-1.201742962002754211e-01,-2.648643776774406433e-02,-5.220569297671318054e-02,-1.721992194652557373e-01,1.400108039379119873e-01,4.827194288372993469e-02,6.804823130369186401e-02,2.389615587890148163e-02,7.590590417385101318e-02,6.391038000583648682e-02,5.660173669457435608e-02,-2.855327166616916656e-02,1.143323723226785660e-02,5.636273324489593506e-02,5.559470131993293762e-02,8.959271013736724854e-02,4.196785017848014832e-02,1.697094552218914032e-02,-5.006396025419235229e-02,-3.142541274428367615e-03,1.105447188019752502e-01,3.629012405872344971e-02,-3.720177337527275085e-03,4.625340551137924194e-02,2.325286529958248138e-02,-1.010158210992813110e-01,-7.868142426013946533e-02,-1.813386827707290649e-01,-2.880506962537765503e-02,-1.221148371696472168e-01,1.574299484491348267e-02,1.606466025114059448e-01,9.037160128355026245e-02,-1.094215661287307739e-01,-3.353268280625343323e-02,-9.185411781072616577e-02,9.919209778308868408e-02,-8.938186615705490112e-02,-1.692771017551422119e-01,-3.657151758670806885e-02,-6.824818253517150879e-02,9.307552874088287354e-02,-3.810684755444526672e-02,4.312511906027793884e-02,2.154960855841636658e-02,-3.490277752280235291e-02,-5.032837018370628357e-02,-1.587552577257156372e-01,-6.146410852670669556e-02,3.601898625493049622e-02,1.284577138721942902e-02,-5.649460107088088989e-02,6.164227798581123352e-02,8.961585164070129395e-02,8.035381883382797241e-02,5.864274129271507263e-02,-3.552098572254180908e-02,-1.073486059904098511e-01,-3.902493789792060852e-02,-3.816953627392649651e-03,-1.108345761895179749e-02,1.193032786250114441e-02,-2.165159443393349648e-03,-8.278278633952140808e-03,-1.583472043275833130e-01,-2.149514853954315186e-01,-4.149272665381431580e-02,-1.332974992692470551e-02,6.731007248163223267e-02,5.027191713452339172e-02,6.533350050449371338e-02,1.108080893754959106e-01,-9.177003987133502960e-03,1.051413938403129578e-01,1.039731726050376892e-01,6.283864378929138184e-02,3.756200149655342102e-02,9.957819432020187378e-02,9.419164061546325684e-02,6.535065919160842896e-02,-3.805022314190864563e-02,-8.751063793897628784e-02,-1.808975823223590851e-02,-1.003349125385284424e-01,-1.015468388795852661e-01,5.244280025362968445e-02,-5.031415820121765137e-02,-8.824335038661956787e-02,2.430512569844722748e-02,-4.827815294265747070e-02,-2.984699234366416931e-02,-1.022678911685943604e-01,-6.901333481073379517e-02,-1.490135639905929565e-01,-1.009115367196500301e-03,5.945679917931556702e-02,5.588321387767791748e-02,6.660442054271697998e-02,9.366837143898010254e-02,2.806948870420455933e-02,-2.251306921243667603e-02,-3.831951320171356201e-02,6.759683042764663696e-02
1.099838465452194214e-01,-1.498403996229171753e-01,2.587070921435952187e-03,2.601692080497741699e-01,-7.463087886571884155e-02,-1.801097206771373749e-02,5.023772269487380981e-02,1.866036653518676758e-01,5.319342762231826782e-02,-1.112286467105150223e-02,-1.320080645382404327e-02,-9.705631434917449951e-02,-5.229773372411727905e-02,-1.013384982943534851e-01,-9.934929013252258301e-02,-1.396941393613815308e-02,-1.512921303510665894e-01,-7.423038780689239502e-02,-1.302462536841630936e-02,7.537871599197387695e-02,1.956200972199440002e-02,5.190971121191978455e-02,1.189988031983375549e-01,8.338907361030578613e-02,6.752369552850723267e-02,1.075116991996765137e-01,2.078985422849655151e-02,8.946369588375091553e-02,-7.489336282014846802e-02,-1.136248856782913208e-01,3.699362045153975487e-03,1.615335196256637573e-01,9.043898433446884155e-03,3.024050965905189514e-02,3.147821500897407532e-02,1.541297137737274170e-01,-2.805701643228530884e-02,-8.601720631122589111e-02,-6.644275784492492676e-02,-8.886057138442993164e-02,2.910668589174747467e-02,-4.233229905366897583e-02,-5.189456790685653687e-02,-8.362533897161483765e-02,-4.189243540167808533e-02,5.205485969781875610e-02,-9.872084483504295349e-03,5.604257062077522278e-02,-2.137047350406646729e-01,-6.109580397605895996e-03,-9.735578298568725586e-02,-1.495923101902008057e-01,-2.276303917169570923e-01,-7.168535888195037842e-02,7.299461960792541504e-02,5.976972356438636780e-02,5.554797500371932983e-02,4.826268553733825684e-02,-8.773931302130222321e-03,1.241187602281570435e-01,5.409449338912963867e-02,6.256634742021560669e-02,1.036005094647407532e-02,5.710187926888465881e-02,-8.478817343711853027e-02,-8.068893849849700928e-02,-2.607182785868644714e-02,9.827073663473129272e-02,-1.100844740867614746e-01,-2.309236861765384674e-02,1.054247617721557617e-01,-1.596420258283615112e-02,2.944642864167690277e-02,9.607657790184020996e-03,-8.713316172361373901e-02,-1.151698678731918335e-01,-9.397969394922256470e-02,-1.095946580171585083e-01,-1.106106266379356384e-01,-9.870076179504394531e-02,-8.450442552566528320e-02,-7.953302562236785889e-02,-7.789365947246551514e-02,-1.249727513641119003e-02,1.015855371952056885e-01,4.401465505361557007e-02,-7.194653153419494629e-02,6.913342326879501343e-02,2.647281996905803680e-02,-4.896926879882812500e-02,-2.866198681294918060e-02,3.021474927663803101e-02,3.657307475805282593e-02,9.146491438150405884e-02,1.257150024175643921e-01,5.751151219010353088e-02,3.542958945035934448e-02,1.143789961934089661e-01,8.497458696365356445e-02,-7.493138313293457031e-02,-5.922451242804527283e-02,-1.154607310891151428e-01,3.286432102322578430e-02,2.404171600937843323e-02,-8.589845895767211914e-02,1.430898457765579224e-01,1.146900132298469543e-01,-5.823824927210807800e-02,4.207700863480567932e-02,-6.473077833652496338e-02,-1.208423450589179993e-01,9.981148689985275269e-02,-1.546527910977602005e-02,9.751330129802227020e-03,6.007614079862833023e-03,2.356982976198196411e-02,1.011607497930526733e-01,-3.856145590543746948e-02,4.407915100455284119e-02,-9.762839227914810181e-02,3.901422023773193359e-02,9.957419335842132568e-02,-2.315220795571804047e-02,-3.485734015703201294e-02,5.133611708879470825e-02,1.939133405685424805e-01,-2.862365916371345520e-02,-8.187048137187957764e-02,9.581542760133743286e-02,-4.189055413007736206e-03,-7.329752296209335327e-02,5.394040420651435852e-02,1.655137240886688232e-01,1.017924211919307709e-02,4.093682393431663513e-02,1.236050426959991455e-01,3.581082075834274292e-02,4.320957139134407043e-02,1.109463945031166077e-01,2.022960688918828964e-03,-7.946168631315231323e-02,-9.066455811262130737e-02,9.258642047643661499e-02,3.893565014004707336e-02,-6.808270514011383057e-02,1.920784264802932739e-02,-1.042910143733024597e-01,-1.790099591016769409e-02,1.086394395679235458e-02,-1.260677576065063477e-01,-1.012268587946891785e-01,-2.018932625651359558e-02,-1.059623882174491882e-01,5.855126306414604187e-02,-1.450844574719667435e-02,4.248202964663505554e-02,2.181946337223052979e-01,-4.202097654342651367e-02,1.160652027465403080e-03,1.229043155908584595e-01,6.325832009315490723e-02,-3.823573142290115356e-02,-1.059606019407510757e-02,-1.080778837203979492e-01,8.918437361717224121e-02,-7.457660883665084839e-02,-5.193992331624031067e-02,-7.380507886409759521e-02,-3.582142293453216553e-02,-2.140224352478981018e-02,-2.524289116263389587e-02,-1.444742381572723389e-01,-1.013590022921562195e-01,-1.206862851977348328e-01,-3.822157531976699829e-02,-2.466245740652084351e-01,-1.773556917905807495e-01,-1.070138737559318542e-01,-1.330522000789642334e-01,-1.630242168903350830e-01,-4.922495037317276001e-02,-1.032319217920303345e-01,-4.432221129536628723e-02,1.327369734644889832e-02,2.995839715003967285e-02,-7.445044070482254028e-02,-7.862475514411926270e-02,4.863923415541648865e-02,5.183532461524009705e-02,1.499995887279510498e-01,-4.855237901210784912e-02,-6.420761346817016602e-02,2.949421666562557220e-02,1.288929730653762817e-01,1.266201883554458618e-01,-1.242072582244873047e-01,6.179623305797576904e-02,5.176145583391189575e-02,-1.513203382492065430e-01,-1.027040928602218628e-01,3.448889777064323425e-02,-7.506837695837020874e-02,-9.885175526142120361e-02,-6.515438854694366455e-02,-3.697348386049270630e-02,-6.672435440123081207e-03,-1.314213220030069351e-02,-1.656244322657585144e-02,9.064233861863613129e-03,-1.161525491625070572e-02,1.098174899816513062e-01,-8.928791619837284088e-03,3.592541441321372986e-02,-4.669607803225517273e-02,-2.150234021246433258e-02,-6.924610584974288940e-03,1.491530686616897583e-01,-3.808765858411788940e-02,-2.968054637312889099e-02,8.459849655628204346e-02,1.106739416718482971e-01,4.826757591217756271e-03,3.463282436132431030e-02,1.189131289720535278e-01,2.239038422703742981e-02,1.375473737716674805e-01,7.776100654155015945e-03,-3.835192322731018066e-02,-6.660063285380601883e-03,-1.294407993555068970e-01,-1.209552064538002014e-01,-4.441871866583824158e-02,-1.474290043115615845e-01,3.259335830807685852e-02,-9.697682410478591919e-02,-9.933399409055709839e-02,5.056823045015335083e-02,7.575697451829910278e-02,-1.141843721270561218e-01,-8.406062424182891846e-02,1.332269608974456787e-01,-7.217437028884887695e-02,-5.308152362704277039e-02,-2.571797557175159454e-02,-6.534568965435028076e-02,-1.308747678995132446e-01,1.060765087604522705e-01,2.215660735964775085e-02,-3.595334291458129883e-02,5.846465378999710083e-02,1.245887875556945801e-01,-5.971271544694900513e-02,-1.917565166950225830e-01,-9.558665007352828979e-02,3.748208656907081604e-02,-1.540122479200363159e-01,-2.316441386938095093e-01,-5.355105921626091003e-02,-1.057627797126770020e-02,-1.532445400953292847e-01,-8.824213407933712006e-03,3.940105810761451721e-02,-1.014336198568344116e-01,-2.883992902934551239e-02,-4.589113406836986542e-03,-1.119467169046401978e-01,6.144823506474494934e-02,9.490115568041801453e-03,4.813261330127716064e-02,1.802304387092590332e-02,4.997281730175018311e-02,-1.324964314699172974e-01,-4.668090865015983582e-02,8.652566373348236084e-02,9.068516641855239868e-02,-5.266787484288215637e-02,-1.715989224612712860e-02,9.787348099052906036e-03,-6.572955846786499023e-02,-3.164226189255714417e-02,-3.509012982249259949e-02,9.837935678660869598e-03,8.101023733615875244e-02,-8.455784618854522705e-02,9.885847568511962891e-03,2.808934822678565979e-02,1.377492696046829224e-01,1.960763707756996155e-02
